{"learner":{"attributes":{"scikit_learn":"{\"_estimator_type\": \"regressor\"}"},"feature_names":[],"feature_types":[],"gradient_booster":{"model":{"gbtree_model_param":{"num_parallel_tree":"1","num_trees":"500"},"iteration_indptr":[0,1,2,3,4,5,6,7,8,9,10,11,12,13,14,15,16,17,18,19,20,21,22,23,24,25,26,27,28,29,30,31,32,33,34,35,36,37,38,39,40,41,42,43,44,45,46,47,48,49,50,51,52,53,54,55,56,57,58,59,60,61,62,63,64,65,66,67,68,69,70,71,72,73,74,75,76,77,78,79,80,81,82,83,84,85,86,87,88,89,90,91,92,93,94,95,96,97,98,99,100,101,102,103,104,105,106,107,108,109,110,111,112,113,114,115,116,117,118,119,120,121,122,123,124,125,126,127,128,129,130,131,132,133,134,135,136,137,138,139,140,141,142,143,144,145,146,147,148,149,150,151,152,153,154,155,156,157,158,159,160,161,162,163,164,165,166,167,168,169,170,171,172,173,174,175,176,177,178,179,180,181,182,183,184,185,186,187,188,189,190,191,192,193,194,195,196,197,198,199,200,201,202,203,204,205,206,207,208,209,210,211,212,213,214,215,216,217,218,219,220,221,222,223,224,225,226,227,228,229,230,231,232,233,234,235,236,237,238,239,240,241,242,243,244,245,246,247,248,249,250,251,252,253,254,255,256,257,258,259,260,261,262,263,264,265,266,267,268,269,270,271,272,273,274,275,276,277,278,279,280,281,282,283,284,285,286,287,288,289,290,291,292,293,294,295,296,297,298,299,300,301,302,303,304,305,306,307,308,309,310,311,312,313,314,315,316,317,318,319,320,321,322,323,324,325,326,327,328,329,330,331,332,333,334,335,336,337,338,339,340,341,342,343,344,345,346,347,348,349,350,351,352,353,354,355,356,357,358,359,360,361,362,363,364,365,366,367,368,369,370,371,372,373,374,375,376,377,378,379,380,381,382,383,384,385,386,387,388,389,390,391,392,393,394,395,396,397,398,399,400,401,402,403,404,405,406,407,408,409,410,411,412,413,414,415,416,417,418,419,420,421,422,423,424,425,426,427,428,429,430,431,432,433,434,435,436,437,438,439,440,441,442,443,444,445,446,447,448,449,450,451,452,453,454,455,456,457,458,459,460,461,462,463,464,465,466,467,468,469,470,471,472,473,474,475,476,477,478,479,480,481,482,483,484,485,486,487,488,489,490,491,492,493,494,495,496,497,498,499,500],"tree_info":[0,0,0,0,0,0,0,0,0,0,0,0,0,0,0,0,0,0,0,0,0,0,0,0,0,0,0,0,0,0,0,0,0,0,0,0,0,0,0,0,0,0,0,0,0,0,0,0,0,0,0,0,0,0,0,0,0,0,0,0,0,0,0,0,0,0,0,0,0,0,0,0,0,0,0,0,0,0,0,0,0,0,0,0,0,0,0,0,0,0,0,0,0,0,0,0,0,0,0,0,0,0,0,0,0,0,0,0,0,0,0,0,0,0,0,0,0,0,0,0,0,0,0,0,0,0,0,0,0,0,0,0,0,0,0,0,0,0,0,0,0,0,0,0,0,0,0,0,0,0,0,0,0,0,0,0,0,0,0,0,0,0,0,0,0,0,0,0,0,0,0,0,0,0,0,0,0,0,0,0,0,0,0,0,0,0,0,0,0,0,0,0,0,0,0,0,0,0,0,0,0,0,0,0,0,0,0,0,0,0,0,0,0,0,0,0,0,0,0,0,0,0,0,0,0,0,0,0,0,0,0,0,0,0,0,0,0,0,0,0,0,0,0,0,0,0,0,0,0,0,0,0,0,0,0,0,0,0,0,0,0,0,0,0,0,0,0,0,0,0,0,0,0,0,0,0,0,0,0,0,0,0,0,0,0,0,0,0,0,0,0,0,0,0,0,0,0,0,0,0,0,0,0,0,0,0,0,0,0,0,0,0,0,0,0,0,0,0,0,0,0,0,0,0,0,0,0,0,0,0,0,0,0,0,0,0,0,0,0,0,0,0,0,0,0,0,0,0,0,0,0,0,0,0,0,0,0,0,0,0,0,0,0,0,0,0,0,0,0,0,0,0,0,0,0,0,0,0,0,0,0,0,0,0,0,0,0,0,0,0,0,0,0,0,0,0,0,0,0,0,0,0,0,0,0,0,0,0,0,0,0,0,0,0,0,0,0,0,0,0,0,0,0,0,0,0,0,0,0,0,0,0,0,0,0,0,0,0,0,0,0,0,0,0,0,0,0,0,0,0,0,0,0,0,0,0,0,0,0,0,0,0,0,0,0,0,0,0,0,0,0,0,0,0,0,0,0,0,0,0,0,0,0,0,0,0,0,0,0,0,0,0,0,0,0,0,0,0,0,0],"trees":[{"base_weights":[-5.7768263E-4,-4.9986368E-1,2.1164803E-1,-2.4996797E-2,-1.1668818E-2,1.6446866E-2,4.1108572E-1,-2.1204646E-1,3.139123E-1,3.383994E-1,4.714452E-1,-3.133243E-1,-3.3424523E-2,2.477971E-1,4.0961257E-1,1.5435763E-1,3.9560682E-1,4.2661235E-1,4.8866212E-1,-3.4550792E-1,-9.902195E-2,-1.8453275E-1,3.8720336E-2,1.0169668E-1,3.0182725E-1,1.1458316E-1,4.1796038E-1,7.548531E-2,2.810011E-1,4.3386668E-1,2.9906568E-1,4.299443E-1,-2.2312456E-1,4.9172074E-1,3.891794E-1,-1.9312972E-2,-1.2078763E-2,2.0306094E-2,-7.886365E-3,-1.3547753E-2,-2.7371289E-3,2.0522546E-2,-3.6527254E-5,8.3347E-3,-4.069239E-3,6.997423E-3,1.7611105E-2,1.7664144E-2,-8.423566E-3,4.14641E-3,2.1170836E-2,2.7803468E-4,1.3261317E-2,2.135708E-2,1.0202905E-2,1.9802889E-2,2.3402592E-2,8.7326495E-3,1.7196735E-2,2.1953568E-2,1.1783157E-2,3.3311825E-3,-2.1252258E-2,1.3179473E-2,2.4601655E-2,2.1020828E-2,7.797522E-3],"categories":[],"categories_nodes":[],"categories_segments":[],"categories_sizes":[],"default_left":[0,0,0,0,0,0,0,0,0,0,0,0,0,0,0,0,0,0,0,0,0,0,0,0,0,0,0,0,0,0,0,0,0,0,0,0,0,0,0,0,0,0,0,0,0,0,0,0,0,0,0,0,0,0,0,0,0,0,0,0,0,0,0,0,0,0,0],"id":0,"left_children":[1,3,5,-1,-1,7,9,11,13,15,17,19,21,23,25,27,29,31,33,35,37,39,41,43,45,47,49,51,53,55,57,59,61,63,65,-1,-1,-1,-1,-1,-1,-1,-1,-1,-1,-1,-1,-1,-1,-1,-1,-1,-1,-1,-1,-1,-1,-1,-1,-1,-1,-1,-1,-1,-1,-1,-1],"loss_changes":[4.914833E3,7.6171875E-2,1.2670594E3,0E0,0E0,1.1181646E3,7.039087E1,1.6826828E2,4.505359E1,7.68266E1,6.486328E0,4.086902E1,3.673859E1,3.3319824E1,7.0854187E0,1.7273476E1,2.0385315E1,5.418396E0,1.651001E0,2.170288E1,2.3080877E1,1.2167652E1,3.347769E1,1.3635475E1,2.5084778E1,5.61833E0,5.100403E0,1.4181013E1,7.327301E0,4.884033E0,8.741547E0,4.1503906E0,8.2473993E-1,2.3278809E-1,1.297451E0,0E0,0E0,0E0,0E0,0E0,0E0,0E0,0E0,0E0,0E0,0E0,0E0,0E0,0E0,0E0,0E0,0E0,0E0,0E0,0E0,0E0,0E0,0E0,0E0,0E0,0E0,0E0,0E0,0E0,0E0,0E0,0E0],"parents":[2147483647,0,0,1,1,2,2,5,5,6,6,7,7,8,8,9,9,10,10,11,11,12,12,13,13,14,14,15,15,16,16,17,17,18,18,19,19,20,20,21,21,22,22,23,23,24,24,25,25,26,26,27,27,28,28,29,29,30,30,31,31,32,32,33,33,34,34],"right_children":[2,4,6,-1,-1,8,10,12,14,16,18,20,22,24,26,28,30,32,34,36,38,40,42,44,46,48,50,52,54,56,58,60,62,64,66,-1,-1,-1,-1,-1,-1,-1,-1,-1,-1,-1,-1,-1,-1,-1,-1,-1,-1,-1,-1,-1,-1,-1,-1,-1,-1,-1,-1,-1,-1,-1,-1],"split_conditions":[-5.2810675E-1,8.008201E-1,6.267276E-1,-2.4996797E-2,-1.1668818E-2,-6.352279E-1,-6.2014234E-1,2.6230153E-1,5.216927E-1,8.7928915E-1,-1.8241177E-1,6.840215E-1,-9.393463E-1,-8.616143E-2,-1.2434784E0,-2.3472004E-1,4.6397868E-1,2.6599858E0,1.2425607E0,1.1101528E-1,-9.6107334E-1,-9.697684E-2,-7.632833E-1,2.3144092E-1,-1.508324E-1,1.7897332E-1,-4.3735933E-1,3.0638558E-1,-5.896895E-1,-2.8300655E-1,1.0594524E0,1.0734278E0,3.7005597E-1,-1.0288867E0,8.406026E-1,-1.9312972E-2,-1.2078763E-2,2.0306094E-2,-7.886365E-3,-1.3547753E-2,-2.7371289E-3,2.0522546E-2,-3.6527254E-5,8.3347E-3,-4.069239E-3,6.997423E-3,1.7611105E-2,1.7664144E-2,-8.423566E-3,4.14641E-3,2.1170836E-2,2.7803468E-4,1.3261317E-2,2.135708E-2,1.0202905E-2,1.9802889E-2,2.3402592E-2,8.7326495E-3,1.7196735E-2,2.1953568E-2,1.1783157E-2,3.3311825E-3,-2.1252258E-2,1.3179473E-2,2.4601655E-2,2.1020828E-2,7.797522E-3],"split_indices":[108,126,108,0,0,127,127,108,48,108,88,132,110,108,132,88,112,11,108,90,96,132,86,85,127,84,108,48,76,97,108,118,0,97,114,0,0,0,0,0,0,0,0,0,0,0,0,0,0,0,0,0,0,0,0,0,0,0,0,0,0,0,0,0,0,0,0],"split_type":[0,0,0,0,0,0,0,0,0,0,0,0,0,0,0,0,0,0,0,0,0,0,0,0,0,0,0,0,0,0,0,0,0,0,0,0,0,0,0,0,0,0,0,0,0,0,0,0,0,0,0,0,0,0,0,0,0,0,0,0,0,0,0,0,0,0,0],"sum_hessian":[4.6381E4,1.3834E4,3.2547E4,1.3829E4,5E0,1.6449E4,1.6098E4,9.303E3,7.146E3,7.307E3,8.791E3,5.936E3,3.367E3,4.229E3,2.917E3,1.734E3,5.573E3,2.448E3,6.343E3,5.16E3,7.76E2,1.088E3,2.279E3,1.143E3,3.086E3,8.1E1,2.836E3,1.07E3,6.64E2,3.988E3,1.585E3,2.436E3,1.2E1,6.149E3,1.94E2,3.704E3,1.456E3,8E1,6.96E2,6.52E2,4.36E2,2.18E2,2.061E3,8.44E2,2.99E2,7.34E2,2.352E3,4.4E1,3.7E1,4.6E1,2.79E3,7.83E2,2.87E2,2.27E2,4.37E2,1.901E3,2.087E3,4.22E2,1.163E3,2.325E3,1.11E2,5E0,7E0,1E1,6.139E3,1.7E2,2.4E1],"tree_param":{"num_deleted":"0","num_feature":"133","num_nodes":"67","size_leaf_vector":"1"}},{"base_weights":[1.0635022E-3,-4.747262E-1,2.0046921E-1,-2.3739746E-2,-1.1071551E-2,1.3187953E-2,3.9175642E-1,3.1241542E-1,-1.928152E-1,4.519262E-1,3.2369417E-1,1.687924E-1,3.502497E-1,-3.155919E-1,-3.9873496E-2,4.1680655E-1,4.6603405E-1,1.3555361E-1,3.777583E-1,3.6721972E-1,4.4779975E-2,3.5746858E-1,-1.6820858E-1,-3.76197E-1,-1.6618176E-1,-1.5588915E-1,9.330438E-2,4.2005482E-1,-1.7083777E-2,4.1276994E-3,4.665048E-1,-2.3977894E-2,1.9894478E-1,2.8278372E-1,4.0960154E-1,1.9236103E-2,-1.1352949E-2,-5.7766414E-3,1.0991703E-2,1.3881238E-2,1.97986E-2,-1.8628793E-2,8.863625E-3,-2.0195952E-2,-1.544025E-2,4.474658E-3,-1.0637026E-2,-9.564077E-3,2.2080755E-2,3.0998064E-3,1.9502956E-2,2.1555312E-2,1.2800874E-2,2.0353595E-2,2.3388445E-2,-7.3492564E-3,5.2468395E-3,1.7223045E-2,7.0530954E-3,9.163642E-3,1.5739461E-2,-1.1917963E-2,2.0623399E-2],"categories":[],"categories_nodes":[],"categories_segments":[],"categories_sizes":[],"default_left":[0,0,0,0,0,0,0,0,0,0,0,0,0,0,0,0,0,0,0,0,0,0,0,0,0,0,0,0,0,0,0,0,0,0,0,0,0,0,0,0,0,0,0,0,0,0,0,0,0,0,0,0,0,0,0,0,0,0,0,0,0,0,0],"id":1,"left_children":[1,3,5,-1,-1,7,9,11,13,15,17,19,21,23,25,27,29,31,33,35,37,39,41,43,45,47,49,51,-1,-1,53,55,57,59,61,-1,-1,-1,-1,-1,-1,-1,-1,-1,-1,-1,-1,-1,-1,-1,-1,-1,-1,-1,-1,-1,-1,-1,-1,-1,-1,-1,-1],"loss_changes":[4.420113E3,6.4453125E-2,1.1760728E3,0E0,0E0,1.0227097E3,6.628784E1,3.664917E1,1.8446136E2,3.9868164E0,7.745636E1,3.4712685E1,2.0113586E1,4.9233093E1,6.764859E1,6.2639465E0,1.0144043E0,1.725463E1,1.7724792E1,5.751007E0,2.447906E1,1.605481E1,5.3103504E0,7.045349E0,1.8780022E1,4.954366E1,1.8865414E1,4.300415E0,0E0,0E0,1.8249512E-1,7.7104864E0,1.0178791E1,4.641182E0,8.347473E0,0E0,0E0,0E0,0E0,0E0,0E0,0E0,0E0,0E0,0E0,0E0,0E0,0E0,0E0,0E0,0E0,0E0,0E0,0E0,0E0,0E0,0E0,0E0,0E0,0E0,0E0,0E0,0E0],"parents":[2147483647,0,0,1,1,2,2,5,5,6,6,7,7,8,8,9,9,10,10,11,11,12,12,13,13,14,14,15,15,16,16,17,17,18,18,19,19,20,20,21,21,22,22,23,23,24,24,25,25,26,26,27,27,30,30,31,31,32,32,33,33,34,34],"right_children":[2,4,6,-1,-1,8,10,12,14,16,18,20,22,24,26,28,30,32,34,36,38,40,42,44,46,48,50,52,-1,-1,54,56,58,60,62,-1,-1,-1,-1,-1,-1,-1,-1,-1,-1,-1,-1,-1,-1,-1,-1,-1,-1,-1,-1,-1,-1,-1,-1,-1,-1,-1,-1],"split_conditions":[-5.2810675E-1,7.150363E-1,6.267276E-1,-2.3739746E-2,-1.1071551E-2,-6.1080354E-1,-5.6399333E-1,-1.7610234E-1,2.0143425E-1,-5.08894E-1,8.7362677E-1,-8.7231344E-1,2.0442462E0,-4.4950885E-1,-6.6865814E-1,2.6599858E0,-2.8607008E0,-1.1727359E0,-2.0209575E-1,1.3668875E0,5.1883566E-1,1.72642E-1,3.447413E-1,3.3591393E-1,-7.224285E-1,1.2817487E0,8.9733803E-1,8.2391006E-1,-1.7083777E-2,4.1276994E-3,-7.804611E-1,7.40155E-2,-5.049444E-1,-1.0433718E0,-2.1471455E0,1.9236103E-2,-1.1352949E-2,-5.7766414E-3,1.0991703E-2,1.3881238E-2,1.97986E-2,-1.8628793E-2,8.863625E-3,-2.0195952E-2,-1.544025E-2,4.474658E-3,-1.0637026E-2,-9.564077E-3,2.2080755E-2,3.0998064E-3,1.9502956E-2,2.1555312E-2,1.2800874E-2,2.0353595E-2,2.3388445E-2,-7.3492564E-3,5.2468395E-3,1.7223045E-2,7.0530954E-3,9.163642E-3,1.5739461E-2,-1.1917963E-2,2.0623399E-2],"split_indices":[108,126,108,0,0,128,128,108,108,91,108,71,96,13,13,11,92,88,26,3,13,13,89,1,131,18,91,119,0,0,129,78,131,13,13,0,0,0,0,0,0,0,0,0,0,0,0,0,0,0,0,0,0,0,0,0,0,0,0,0,0,0,0],"split_type":[0,0,0,0,0,0,0,0,0,0,0,0,0,0,0,0,0,0,0,0,0,0,0,0,0,0,0,0,0,0,0,0,0,0,0,0,0,0,0,0,0,0,0,0,0,0,0,0,0,0,0,0,0,0,0,0,0,0,0,0,0,0,0],"sum_hessian":[4.6587E4,1.3758E4,3.2829E4,1.3753E4,5E0,1.6589E4,1.624E4,6.764E3,9.825E3,8.616E3,7.624E3,1.412E3,5.352E3,5.449E3,4.376E3,2.48E3,6.136E3,1.703E3,5.921E3,5.42E2,8.7E2,5.279E3,7.3E1,3.875E3,1.574E3,2.339E3,2.037E3,2.47E3,1E1,8E0,6.128E3,4.84E2,1.219E3,1.49E3,4.431E3,5.27E2,1.5E1,4.54E2,4.16E2,1.721E3,3.558E3,4.6E1,2.7E1,2.741E3,1.134E3,2.42E2,1.332E3,2.209E3,1.3E2,1.844E3,1.93E2,2.312E3,1.58E2,1.36E2,5.992E3,2.48E2,2.36E2,3.45E2,8.74E2,3.65E2,1.125E3,1.9E1,4.412E3],"tree_param":{"num_deleted":"0","num_feature":"133","num_nodes":"63","size_leaf_vector":"1"}},{"base_weights":[1.3833714E-3,-2.2553397E-2,1.9117704E-1,2.8994333E-3,3.6301693E-1,2.94242E-1,-1.9847123E-1,4.2789516E-1,2.9368976E-1,2.1625282E-1,3.6909494E-1,-3.1193405E-1,-6.972559E-2,3.8651255E-1,4.4249785E-1,1.4449808E-1,3.6874205E-1,2.7394358E-2,2.7265397E-1,-0E0,3.767052E-1,-3.6810192E-1,-1.8680552E-1,-1.7541759E-1,7.311135E-2,3.905546E-1,-2.9916036E-1,2.0992332E-3,4.4278297E-1,1.0708041E-2,2.18989E-1,2.841888E-1,3.951754E-1,-7.4800984E-3,9.546624E-3,-4.814552E-3,1.498286E-2,-1.0056584E-2,1.8563554E-2,1.9215412E-2,7.3111462E-3,-1.9367225E-2,-1.1813245E-2,-1.0518325E-2,1.1193038E-2,-9.928746E-3,1.9552631E-2,1.5597291E-3,1.6110938E-2,2.0002868E-2,7.83202E-3,-2.824374E-3,-2.0829557E-2,2.2167606E-2,1.2031581E-2,-2.9148536E-3,2.0311289E-2,1.8513478E-2,8.785372E-3,8.040416E-3,1.5321893E-2,1.7418312E-2,2.1342913E-2],"categories":[],"categories_nodes":[],"categories_segments":[],"categories_sizes":[],"default_left":[0,0,0,0,0,0,0,0,0,0,0,0,0,0,0,0,0,0,0,0,0,0,0,0,0,0,0,0,0,0,0,0,0,0,0,0,0,0,0,0,0,0,0,0,0,0,0,0,0,0,0,0,0,0,0,0,0,0,0,0,0,0,0],"id":2,"left_children":[1,-1,3,5,7,9,11,13,15,17,19,21,23,25,27,29,31,33,35,37,39,41,43,45,47,49,51,-1,53,55,57,59,61,-1,-1,-1,-1,-1,-1,-1,-1,-1,-1,-1,-1,-1,-1,-1,-1,-1,-1,-1,-1,-1,-1,-1,-1,-1,-1,-1,-1,-1,-1],"loss_changes":[3.9938135E3,0E0,1.0600278E3,9.173983E2,7.68501E1,3.7170593E1,1.3500421E2,5.0915527E0,9.266406E1,3.33347E1,9.131317E0,3.4412323E1,6.543715E1,6.547638E0,6.7871094E-1,2.7630733E1,1.2136963E1,2.093145E1,2.407927E1,5.0881867E0,5.486084E0,8.446136E0,1.4801189E1,3.273519E1,1.91988E1,5.0030518E0,3.2812166E-1,0E0,5.756836E-1,2.7187464E1,1.1548264E1,3.519287E0,5.995178E0,0E0,0E0,0E0,0E0,0E0,0E0,0E0,0E0,0E0,0E0,0E0,0E0,0E0,0E0,0E0,0E0,0E0,0E0,0E0,0E0,0E0,0E0,0E0,0E0,0E0,0E0,0E0,0E0,0E0,0E0],"parents":[2147483647,0,0,2,2,3,3,4,4,5,5,6,6,7,7,8,8,9,9,10,10,11,11,12,12,13,13,14,14,15,15,16,16,17,17,18,18,19,19,20,20,21,21,22,22,23,23,24,24,25,25,26,26,28,28,29,29,30,30,31,31,32,32],"right_children":[2,-1,4,6,8,10,12,14,16,18,20,22,24,26,28,30,32,34,36,38,40,42,44,46,48,50,52,-1,54,56,58,60,62,-1,-1,-1,-1,-1,-1,-1,-1,-1,-1,-1,-1,-1,-1,-1,-1,-1,-1,-1,-1,-1,-1,-1,-1,-1,-1,-1,-1,-1,-1],"split_conditions":[-5.2810675E-1,-2.2553397E-2,5.577011E-1,5.615041E-1,8.219968E-1,3.476173E-1,1.5578115E-1,-5.722994E-1,9.4668484E-1,-8.32412E-2,-4.3735933E-1,-4.912698E-1,-6.104837E-1,2.3501277E0,-3.0659947E0,-8.857704E-1,-2.0209575E-1,1.0673206E-2,-1.5718981E0,9.9193376E-1,-6.178391E-1,5.091752E-1,1.2667645E0,1.2817487E0,6.2066287E-1,1.0995483E0,7.851462E-2,2.0992332E-3,2.1879125E0,4.6682185E-1,-8.22186E-1,-9.861991E-1,-1.818393E-1,-7.4800984E-3,9.546624E-3,-4.814552E-3,1.498286E-2,-1.0056584E-2,1.8563554E-2,1.9215412E-2,7.3111462E-3,-1.9367225E-2,-1.1813245E-2,-1.0518325E-2,1.1193038E-2,-9.928746E-3,1.9552631E-2,1.5597291E-3,1.6110938E-2,2.0002868E-2,7.83202E-3,-2.824374E-3,-2.0829557E-2,2.2167606E-2,1.2031581E-2,-2.9148536E-3,2.0311289E-2,1.8513478E-2,8.785372E-3,8.040416E-3,1.5321893E-2,1.7418312E-2,2.1342913E-2],"split_indices":[108,0,108,125,125,48,108,91,108,13,108,13,13,11,92,13,26,108,104,75,128,48,91,18,91,121,10,0,85,18,76,20,129,0,0,0,0,0,0,0,0,0,0,0,0,0,0,0,0,0,0,0,0,0,0,0,0,0,0,0,0,0,0],"split_type":[0,0,0,0,0,0,0,0,0,0,0,0,0,0,0,0,0,0,0,0,0,0,0,0,0,0,0,0,0,0,0,0,0,0,0,0,0,0,0,0,0,0,0,0,0,0,0,0,0,0,0,0,0,0,0,0,0,0,0,0,0,0,0],"sum_hessian":[4.6507E4,1.3743E4,3.2764E4,1.5635E4,1.7129E4,6.39E3,9.245E3,8.845E3,8.284E3,3.132E3,3.258E3,4.913E3,4.332E3,2.316E3,6.529E3,2.774E3,5.51E3,7.21E2,2.411E3,6.6E1,3.192E3,3.389E3,1.524E3,2.49E3,1.842E3,2.303E3,1.3E1,5E0,6.524E3,9.93E2,1.781E3,1.316E3,4.194E3,3.46E2,3.75E2,1.64E2,2.247E3,4.3E1,2.3E1,3.089E3,1.03E2,2.955E3,4.34E2,1.442E3,8.2E1,2.393E3,9.7E1,1.578E3,2.64E2,2.212E3,9.1E1,5E0,8E0,6.504E3,2E1,8.46E2,1.47E2,3.94E2,1.387E3,2.03E2,1.113E3,1.699E3,2.495E3],"tree_param":{"num_deleted":"0","num_feature":"133","num_nodes":"63","size_leaf_vector":"1"}},{"base_weights":[-7.750971E-4,-2.1429474E-2,1.797036E-1,1.0035394E-2,3.5286936E-1,-2.0022708E-1,2.5007036E-1,4.0657902E-1,2.9115263E-1,-2.897958E-1,-4.0899042E-2,2.9772064E-1,6.247677E-2,3.7791917E-1,4.2441705E-1,1.2592384E-1,3.3992618E-1,-3.3836615E-1,-1.6986275E-1,-7.530041E-2,2.4611205E-1,3.0714518E-1,-1.4001064E-1,-1.2049449E-1,1.6889335E-1,3.3196852E-1,4.0751153E-1,4.2495412E-1,4.344677E-3,3.653907E-2,2.4700068E-1,2.6753443E-1,3.694184E-1,-1.7853841E-2,-1.0572875E-2,1.6842853E-2,-9.664005E-3,-1.0752984E-2,6.354388E-4,2.0308563E-2,3.7127312E-3,9.320754E-3,1.681762E-2,1.8096842E-3,-2.170333E-2,-2.0627297E-2,-2.4370027E-3,3.3517273E-3,1.4119536E-2,1.731983E-2,1.717243E-3,1.3782643E-2,2.0606352E-2,2.1256907E-2,8.741278E-3,-1.4238591E-2,4.3426547E-3,2.1694783E-2,9.717521E-3,-1.0007556E-2,1.3982889E-2,1.7106539E-2,2.104151E-2],"categories":[],"categories_nodes":[],"categories_segments":[],"categories_sizes":[],"default_left":[0,0,0,0,0,0,0,0,0,0,0,0,0,0,0,0,0,0,0,0,0,0,0,0,0,0,0,0,0,0,0,0,0,0,0,0,0,0,0,0,0,0,0,0,0,0,0,0,0,0,0,0,0,0,0,0,0,0,0,0,0,0,0],"id":3,"left_children":[1,-1,3,5,7,9,11,13,15,17,19,21,23,25,27,29,31,33,35,37,39,41,43,45,47,49,51,53,-1,55,57,59,61,-1,-1,-1,-1,-1,-1,-1,-1,-1,-1,-1,-1,-1,-1,-1,-1,-1,-1,-1,-1,-1,-1,-1,-1,-1,-1,-1,-1,-1,-1],"loss_changes":[3.5873428E3,0E0,9.6000476E2,8.331186E2,5.341504E1,1.25523926E2,6.8846375E1,4.1781006E0,6.0585266E1,3.269919E1,3.1280933E1,2.541449E1,3.045864E1,4.3147583E0,8.7579346E-1,1.8555552E1,1.2246094E1,9.382446E0,1.9344913E1,3.4832253E1,9.246794E0,2.1102112E1,6.791309E0,1.1983458E1,1.1379663E1,5.575363E0,1.0457764E0,1.0998535E-1,0E0,1.6009722E1,7.0262566E0,9.629089E0,5.568115E0,0E0,0E0,0E0,0E0,0E0,0E0,0E0,0E0,0E0,0E0,0E0,0E0,0E0,0E0,0E0,0E0,0E0,0E0,0E0,0E0,0E0,0E0,0E0,0E0,0E0,0E0,0E0,0E0,0E0,0E0],"parents":[2147483647,0,0,2,2,3,3,4,4,5,5,6,6,7,7,8,8,9,9,10,10,11,11,12,12,13,13,14,14,15,15,16,16,17,17,18,18,19,19,20,20,21,21,22,22,23,23,24,24,25,25,26,26,27,27,29,29,30,30,31,31,32,32],"right_children":[2,-1,4,6,8,10,12,14,16,18,20,22,24,26,28,30,32,34,36,38,40,42,44,46,48,50,52,54,-1,56,58,60,62,-1,-1,-1,-1,-1,-1,-1,-1,-1,-1,-1,-1,-1,-1,-1,-1,-1,-1,-1,-1,-1,-1,-1,-1,-1,-1,-1,-1,-1,-1],"split_conditions":[-5.2810675E-1,-2.1429474E-2,6.267276E-1,-8.2452077E-1,-5.591465E-1,2.6230153E-1,4.2559364E-1,1.5367666E-1,8.7362677E-1,-4.912698E-1,7.654941E-1,1.9057997E0,1.4808331E-1,-5.8333E-1,2.449839E0,3.5854205E-2,-4.368703E-1,5.091752E-1,-1.2793366E0,-9.867573E-1,-4.866623E-1,-1.882446E-1,1.0423695E0,-8.109896E-1,-1.5208209E-1,1.3665386E0,-7.804611E-1,3.04937E0,4.344677E-3,-1.3756461E0,-6.071444E-1,-1.8367326E0,9.12539E-2,-1.7853841E-2,-1.0572875E-2,1.6842853E-2,-9.664005E-3,-1.0752984E-2,6.354388E-4,2.0308563E-2,3.7127312E-3,9.320754E-3,1.681762E-2,1.8096842E-3,-2.170333E-2,-2.0627297E-2,-2.4370027E-3,3.3517273E-3,1.4119536E-2,1.731983E-2,1.717243E-3,1.3782643E-2,2.0606352E-2,2.1256907E-2,8.741278E-3,-1.4238591E-2,4.3426547E-3,2.1694783E-2,9.717521E-3,-1.0007556E-2,1.3982889E-2,1.7106539E-2,2.104151E-2],"split_indices":[108,0,108,127,128,108,125,13,108,13,55,96,108,91,85,55,129,48,96,13,86,108,113,13,13,118,129,2,0,13,86,13,91,0,0,0,0,0,0,0,0,0,0,0,0,0,0,0,0,0,0,0,0,0,0,0,0,0,0,0,0,0,0],"split_type":[0,0,0,0,0,0,0,0,0,0,0,0,0,0,0,0,0,0,0,0,0,0,0,0,0,0,0,0,0,0,0,0,0,0,0,0,0,0,0,0,0,0,0,0,0,0,0,0,0,0,0,0,0,0,0,0,0,0,0,0,0,0,0],"sum_hessian":[4.6459E4,1.3784E4,3.2675E4,1.6505E4,1.617E4,8.798E3,7.707E3,8.642E3,7.528E3,5.631E3,3.167E3,6.145E3,1.562E3,3.326E3,5.316E3,1.717E3,5.811E3,4.006E3,1.625E3,2.829E3,3.38E2,6.016E3,1.29E2,5.74E2,9.88E2,1.309E3,2.017E3,5.307E3,9E0,9.89E2,7.28E2,1.686E3,4.125E3,3.489E3,5.17E2,7.1E1,1.554E3,1.093E3,1.736E3,1.74E2,1.64E2,1.174E3,4.842E3,8.1E1,4.8E1,1.12E2,4.62E2,5.22E2,4.66E2,1.248E3,6.1E1,7.1E1,1.946E3,5.302E3,5E0,1.33E2,8.56E2,1.58E2,5.7E2,4.2E1,1.644E3,2.701E3,1.424E3],"tree_param":{"num_deleted":"0","num_feature":"133","num_nodes":"63","size_leaf_vector":"1"}},{"base_weights":[1.0967228E-3,-2.0358054E-2,1.73554E-1,3.750061E-3,3.280386E-1,2.6899356E-1,-1.786393E-1,3.8533106E-1,2.6398924E-1,9.290426E-2,2.9524302E-1,-2.790427E-1,-5.3299323E-2,3.479946E-1,3.9962173E-1,1.3222198E-1,3.327788E-1,-7.4720375E-2,2.1652474E-1,2.350671E-1,3.5189456E-1,-3.486873E-1,-1.9900703E-1,-1.3438259E-1,1.1323006E-1,-1.7685048E-1,3.514699E-1,4.0029535E-1,1.670414E-1,1.0209322E-2,1.9929467E-1,2.3841038E-1,3.5935712E-1,1.2042651E-2,-1.0357977E-2,1.2587257E-2,-3.678765E-3,1.7918978E-3,1.3963918E-2,1.7870827E-2,2.3305232E-3,-1.8078452E-2,-1.0659876E-2,1.1790808E-2,-1.0671977E-2,-7.6826736E-3,1.8722098E-2,1.967624E-3,1.2332955E-2,1.729859E-2,-2.5128458E-2,1.5406437E-2,1.916154E-2,2.793309E-3,2.002946E-2,-8.151611E-3,1.9519845E-2,-2.927347E-3,1.819718E-2,7.3616155E-3,1.6123248E-2,6.916558E-3,1.3597752E-2,1.8647028E-2,1.1423587E-2],"categories":[],"categories_nodes":[],"categories_segments":[],"categories_sizes":[],"default_left":[0,0,0,0,0,0,0,0,0,0,0,0,0,0,0,0,0,0,0,0,0,0,0,0,0,0,0,0,0,0,0,0,0,0,0,0,0,0,0,0,0,0,0,0,0,0,0,0,0,0,0,0,0,0,0,0,0,0,0,0,0,0,0,0,0],"id":4,"left_children":[1,-1,3,5,7,9,11,13,15,17,19,21,23,25,27,29,31,33,35,37,39,41,43,45,47,49,51,53,55,57,59,61,63,-1,-1,-1,-1,-1,-1,-1,-1,-1,-1,-1,-1,-1,-1,-1,-1,-1,-1,-1,-1,-1,-1,-1,-1,-1,-1,-1,-1,-1,-1,-1,-1],"loss_changes":[3.2767202E3,0E0,8.582536E2,7.54167E2,6.2700073E1,2.9294281E1,1.16195465E2,4.609619E0,7.3266235E1,1.7146599E1,1.870047E1,2.8459564E1,5.5513622E1,4.6615295E0,8.99292E-1,2.2711384E1,1.3187866E1,1.4716316E1,4.8998394E0,2.3599625E1,4.737274E0,4.6476746E0,1.5040466E1,2.7147655E1,1.3229771E1,3.084515E0,3.2486267E0,5.9069824E-1,1.6345825E0,2.4057117E1,1.1396812E1,3.8559036E0,7.223938E0,0E0,0E0,0E0,0E0,0E0,0E0,0E0,0E0,0E0,0E0,0E0,0E0,0E0,0E0,0E0,0E0,0E0,0E0,0E0,0E0,0E0,0E0,0E0,0E0,0E0,0E0,0E0,0E0,0E0,0E0,0E0,0E0],"parents":[2147483647,0,0,2,2,3,3,4,4,5,5,6,6,7,7,8,8,9,9,10,10,11,11,12,12,13,13,14,14,15,15,16,16,17,17,18,18,19,19,20,20,21,21,22,22,23,23,24,24,25,25,26,26,27,27,28,28,29,29,30,30,31,31,32,32],"right_children":[2,-1,4,6,8,10,12,14,16,18,20,22,24,26,28,30,32,34,36,38,40,42,44,46,48,50,52,54,56,58,60,62,64,-1,-1,-1,-1,-1,-1,-1,-1,-1,-1,-1,-1,-1,-1,-1,-1,-1,-1,-1,-1,-1,-1,-1,-1,-1,-1,-1,-1,-1,-1,-1,-1],"split_conditions":[-5.2810675E-1,-2.0358054E-2,5.577011E-1,-6.1230797E-1,-5.591465E-1,-2.710729E-1,1.7343982E-1,-1.4876425E-2,9.527475E-1,4.0243253E-1,3.3689833E-1,-7.638711E-1,-4.2870843E-1,-1.4408916E0,2.3041391E0,-8.857704E-1,-2.0728494E-1,-1.1854844E0,8.696326E-1,-2.2279063E-1,1.9057997E0,6.4100814E-1,-1.2793366E0,1.2817487E0,5.456036E-1,1.7709188E-1,-5.8333E-1,-1.3147719E0,4.81051E-1,4.6682185E-1,3.256867E-1,1.0663701E0,9.805206E-1,1.2042651E-2,-1.0357977E-2,1.2587257E-2,-3.678765E-3,1.7918978E-3,1.3963918E-2,1.7870827E-2,2.3305232E-3,-1.8078452E-2,-1.0659876E-2,1.1790808E-2,-1.0671977E-2,-7.6826736E-3,1.8722098E-2,1.967624E-3,1.2332955E-2,1.729859E-2,-2.5128458E-2,1.5406437E-2,1.916154E-2,2.793309E-3,2.002946E-2,-8.151611E-3,1.9519845E-2,-2.927347E-3,1.819718E-2,7.3616155E-3,1.6123248E-2,6.916558E-3,1.3597752E-2,1.8647028E-2,1.1423587E-2],"split_indices":[108,0,108,128,128,108,108,13,108,13,48,13,13,25,85,13,26,71,38,13,96,48,96,18,132,47,91,17,71,18,54,108,112,0,0,0,0,0,0,0,0,0,0,0,0,0,0,0,0,0,0,0,0,0,0,0,0,0,0,0,0,0,0,0,0],"split_type":[0,0,0,0,0,0,0,0,0,0,0,0,0,0,0,0,0,0,0,0,0,0,0,0,0,0,0,0,0,0,0,0,0,0,0,0,0,0,0,0,0,0,0,0,0,0,0,0,0,0,0,0,0,0,0,0,0,0,0,0,0,0,0,0,0],"sum_hessian":[4.6538E4,1.382E4,3.2718E4,1.5587E4,1.7131E4,6.351E3,9.236E3,9.039E3,8.092E3,8.25E2,5.526E3,5.127E3,4.109E3,2.511E3,6.528E3,2.777E3,5.315E3,3.5E2,4.75E2,2.683E3,2.843E3,2.739E3,2.388E3,2.764E3,1.345E3,1.6E1,2.495E3,6.508E3,2E1,9.86E2,1.791E3,1.171E3,4.144E3,1.03E2,2.47E2,4.24E2,5.1E1,4.88E2,2.195E3,2.792E3,5.1E1,2.499E3,2.4E2,7.6E1,2.312E3,2.664E3,1E2,8.67E2,4.78E2,6E0,1E1,1.061E3,1.434E3,6E0,6.502E3,8E0,1.2E1,8.26E2,1.6E2,1.261E3,5.3E2,2.96E2,8.75E2,3.752E3,3.92E2],"tree_param":{"num_deleted":"0","num_feature":"133","num_nodes":"65","size_leaf_vector":"1"}},{"base_weights":[1.715948E-4,-3.8313657E-1,1.6553183E-1,-1.9332973E-2,-1.1821496E-1,-1.7898817E-3,3.0726805E-1,-3.5142747E-1,3.128266E-2,2.5452754E-1,-1.8150377E-1,3.6442128E-1,2.4483432E-1,-4.333148E-1,9.260936E-2,3.686113E-1,-7.649303E-2,3.5211766E-1,2.040695E-1,-2.756647E-1,-7.562713E-2,3.255126E-1,3.7914747E-1,1.088579E-1,3.1445757E-1,-7.8103617E-3,-2.3776835E-2,1.8605527E-2,-1.1612177E-2,2.167327E-2,2.0951077E-3,3.1565566E-2,-3.8289806E-1,3.547013E-1,-1.7670562E-2,1.08305044E-1,2.7883998E-1,-3.185035E-1,-1.704527E-1,-1.8153398E-1,4.8168227E-2,3.3562985E-1,1.2712878E-1,9.404135E-2,3.7954697E-1,4.0011883E-2,2.3045468E-1,2.345123E-1,3.3889538E-1,-6.993831E-3,1.333406E-2,-3.2666181E-3,-2.3096282E-2,3.215141E-3,1.8029258E-2,-2.9525603E-3,9.923974E-3,1.4441333E-2,-1.4954157E-2,-1.6513776E-2,-9.70084E-3,3.5642881E-3,-1.0602433E-2,-1.0040323E-2,1.86401E-2,8.954983E-4,1.6033413E-2,1.7083246E-2,6.068443E-3,1.5851088E-2,-6.7466903E-3,-5.963827E-3,1.5417618E-2,8.371413E-3,1.9004114E-2,-8.571709E-3,4.8107128E-3,7.2446363E-3,1.6446466E-2,7.4691395E-3,1.4145824E-2,-1.445734E-2,1.7075108E-2],"categories":[],"categories_nodes":[],"categories_segments":[],"categories_sizes":[],"default_left":[0,0,0,0,0,0,0,0,0,0,0,0,0,0,0,0,0,0,0,0,0,0,0,0,0,0,0,0,0,0,0,0,0,0,0,0,0,0,0,0,0,0,0,0,0,0,0,0,0,0,0,0,0,0,0,0,0,0,0,0,0,0,0,0,0,0,0,0,0,0,0,0,0,0,0,0,0,0,0,0,0,0,0],"id":5,"left_children":[1,3,5,-1,7,9,11,13,15,17,19,21,23,25,27,29,31,33,35,37,39,41,43,45,47,-1,-1,-1,-1,-1,-1,49,51,53,-1,55,57,59,61,63,65,67,69,71,73,75,77,79,81,-1,-1,-1,-1,-1,-1,-1,-1,-1,-1,-1,-1,-1,-1,-1,-1,-1,-1,-1,-1,-1,-1,-1,-1,-1,-1,-1,-1,-1,-1,-1,-1,-1,-1],"loss_changes":[2.951704E3,1.3002686E1,7.715928E2,0E0,6.5278454E0,6.873569E2,6.270166E1,2.7285519E0,4.2019725E0,3.0156372E1,8.7395935E1,5.0736084E0,7.965549E1,5.879431E-1,1.1899681E0,5.275762E-1,2.9277635E0,3.9425354E0,2.8980637E1,2.081903E1,5.4182693E1,4.9950256E0,6.7559814E-1,2.3855862E1,1.0743225E1,0E0,0E0,0E0,0E0,0E0,0E0,2.6700509E0,4.9431348E-1,3.5003052E0,0E0,2.6903187E1,1.3227127E1,4.715088E0,1.3563686E1,2.3849663E1,1.5667841E1,3.0272827E0,6.2814674E0,5.5856687E-1,6.367798E-1,2.1684969E1,8.591835E0,5.304283E0,7.0816345E0,0E0,0E0,0E0,0E0,0E0,0E0,0E0,0E0,0E0,0E0,0E0,0E0,0E0,0E0,0E0,0E0,0E0,0E0,0E0,0E0,0E0,0E0,0E0,0E0,0E0,0E0,0E0,0E0,0E0,0E0,0E0,0E0,0E0,0E0],"parents":[2147483647,0,0,1,1,2,2,4,4,5,5,6,6,7,7,8,8,9,9,10,10,11,11,12,12,13,13,14,14,15,15,16,16,17,17,18,18,19,19,20,20,21,21,22,22,23,23,24,24,31,31,32,32,33,33,35,35,36,36,37,37,38,38,39,39,40,40,41,41,42,42,43,43,44,44,45,45,46,46,47,47,48,48],"right_children":[2,4,6,-1,8,10,12,14,16,18,20,22,24,26,28,30,32,34,36,38,40,42,44,46,48,-1,-1,-1,-1,-1,-1,50,52,54,-1,56,58,60,62,64,66,68,70,72,74,76,78,80,82,-1,-1,-1,-1,-1,-1,-1,-1,-1,-1,-1,-1,-1,-1,-1,-1,-1,-1,-1,-1,-1,-1,-1,-1,-1,-1,-1,-1,-1,-1,-1,-1,-1,-1],"split_conditions":[-4.3735933E-1,-5.2810675E-1,5.161761E-1,-1.9332973E-2,-6.505185E-2,-6.0994595E-1,8.4111834E-1,1.4419073E0,-1.1046239E0,-8.7231344E-1,1.3934952E-1,-1.8241177E-1,9.1774565E-1,-1.053227E0,-5.63959E-1,6.509282E-1,-4.1420482E-2,2.6983824E0,1.8175164E-2,-4.4950885E-1,-6.938343E-1,1.0462784E0,-1.1039956E0,1.1323453E-1,-2.0728494E-1,-7.8103617E-3,-2.3776835E-2,1.8605527E-2,-1.1612177E-2,2.167327E-2,2.0951077E-3,6.596041E-1,-5.4366297E-1,-1.8337653E0,-1.7670562E-2,1.72642E-1,3.1309881E0,9.4076806E-1,-7.224285E-1,1.4156967E0,9.152223E-1,1.2500304E0,-1.08516544E-1,3.5702102E-2,-1.435554E0,-1.2231114E0,-1.4251548E-1,-2.9615328E-1,-2.1471455E0,-6.993831E-3,1.333406E-2,-3.2666181E-3,-2.3096282E-2,3.215141E-3,1.8029258E-2,-2.9525603E-3,9.923974E-3,1.4441333E-2,-1.4954157E-2,-1.6513776E-2,-9.70084E-3,3.5642881E-3,-1.0602433E-2,-1.0040323E-2,1.86401E-2,8.954983E-4,1.6033413E-2,1.7083246E-2,6.068443E-3,1.5851088E-2,-6.7466903E-3,-5.963827E-3,1.5417618E-2,8.371413E-3,1.9004114E-2,-8.571709E-3,4.8107128E-3,7.2446363E-3,1.6446466E-2,7.4691395E-3,1.4145824E-2,-1.445734E-2,1.7075108E-2],"split_indices":[108,108,108,0,132,128,125,56,101,71,108,88,108,129,3,55,86,116,108,13,13,118,13,55,26,0,0,0,0,0,0,115,50,116,0,13,87,3,131,18,91,55,3,12,23,13,26,55,13,0,0,0,0,0,0,0,0,0,0,0,0,0,0,0,0,0,0,0,0,0,0,0,0,0,0,0,0,0,0,0,0,0,0],"split_type":[0,0,0,0,0,0,0,0,0,0,0,0,0,0,0,0,0,0,0,0,0,0,0,0,0,0,0,0,0,0,0,0,0,0,0,0,0,0,0,0,0,0,0,0,0,0,0,0,0,0,0,0,0,0,0,0,0,0,0,0,0,0,0,0,0,0,0,0,0,0,0,0,0,0,0,0,0,0,0,0,0,0,0],"sum_hessian":[4.6567E4,1.4034E4,3.2533E4,1.3849E4,1.85E2,1.492E4,1.7613E4,7.2E1,1.13E2,6.149E3,8.771E3,9.192E3,8.421E3,6.1E1,1.1E1,2.7E1,8.6E1,2.093E3,4.056E3,4.641E3,4.13E3,2.532E3,6.66E3,2.853E3,5.568E3,9E0,5.2E1,6E0,5E0,2.2E1,5E0,6.4E1,2.2E1,2.086E3,7E0,1.78E3,2.276E3,3.296E3,1.345E3,2.226E3,1.904E3,2.408E3,1.24E2,1E1,6.65E3,1.823E3,1.03E3,1.307E3,4.261E3,3.7E1,2.7E1,5E0,1.7E1,4.2E1,2.044E3,6.23E2,1.157E3,2.238E3,3.8E1,3.009E3,2.87E2,1.97E2,1.148E3,2.152E3,7.4E1,1.715E3,1.89E2,2.341E3,6.7E1,7.2E1,5.2E1,5E0,5E0,1.8E1,6.632E3,3.82E2,1.441E3,5.53E2,4.77E2,4.76E2,8.31E2,1.7E1,4.244E3],"tree_param":{"num_deleted":"0","num_feature":"133","num_nodes":"83","size_leaf_vector":"1"}},{"base_weights":[-1.1699313E-3,-3.641426E-1,1.5524006E-1,-3.6747447E-1,-1.1980516E-1,1.0717204E-2,3.0193695E-1,-1.8376876E-2,-7.2348886E-3,-3.6767393E-1,5.2610426E-3,-1.6036616E-1,2.3642206E-1,3.5163563E-1,2.5496176E-1,2.5134222E-3,-4.056397E-1,1.2786573E-1,-2.1123558E-1,-2.4934818E-1,-4.348072E-2,1.1572575E-1,2.7817276E-1,6.316668E-2,3.5294864E-1,1.4075711E-1,3.0480155E-1,-2.1715317E-2,-5.817911E-3,2.1892616E-1,-3.229226E-1,8.944752E-2,-3.487047E-1,-2.8678563E-1,-1.16079524E-1,-1.08018726E-1,9.3312025E-2,7.5072595E-3,2.521467E-1,2.8285772E-1,-3.0555296E-1,-2.4984311E-2,1.7866176E-2,3.2308048E-1,3.6313236E-1,-1.3767961E-2,2.0028505E-1,2.3289081E-1,3.288224E-1,1.4226506E-2,-1.9424943E-2,-3.0666706E-3,-2.2516198E-2,1.9386088E-2,-2.0295875E-2,2.0368833E-3,-2.1301808E-2,-1.5265237E-2,-7.946144E-3,-7.7624577E-3,1.1192544E-2,-6.6504288E-3,1.707535E-2,2.6348287E-3,1.5951313E-2,-7.295472E-3,4.82735E-3,-5.9257853E-3,1.4093715E-2,1.7470721E-2,1.278078E-2,1.4549208E-2,-2.5209455E-2,1.6383117E-2,-1.283612E-2,6.2599042E-3,1.8164946E-2,-5.381397E-3,1.2307708E-2,7.82027E-3,1.7028682E-2,1.4910313E-2,9.826E-3,1.7158467E-2,1.2529892E-2],"categories":[],"categories_nodes":[],"categories_segments":[],"categories_sizes":[],"default_left":[0,0,0,0,0,0,0,0,0,0,0,0,0,0,0,0,0,0,0,0,0,0,0,0,0,0,0,0,0,0,0,0,0,0,0,0,0,0,0,0,0,0,0,0,0,0,0,0,0,0,0,0,0,0,0,0,0,0,0,0,0,0,0,0,0,0,0,0,0,0,0,0,0,0,0,0,0,0,0,0,0,0,0,0,0],"id":6,"left_children":[1,3,5,7,9,11,13,-1,-1,15,17,19,21,23,25,-1,27,29,31,33,35,37,39,41,43,45,47,-1,-1,49,51,53,55,57,59,61,63,65,67,69,71,-1,-1,73,75,77,79,81,83,-1,-1,-1,-1,-1,-1,-1,-1,-1,-1,-1,-1,-1,-1,-1,-1,-1,-1,-1,-1,-1,-1,-1,-1,-1,-1,-1,-1,-1,-1,-1,-1,-1,-1,-1,-1],"loss_changes":[2.6360837E3,1.1291016E1,6.8791833E2,8.911133E-2,5.928177E0,6.312743E2,3.744397E1,0E0,0E0,1.0714483E0,3.3896973E0,9.6675995E1,3.5449463E1,2.8983765E0,4.7058838E1,0E0,3.836689E-1,3.4263132E0,1.9585099E0,2.6264618E1,3.5510273E1,2.6752712E1,1.4403168E1,6.290293E0,2.1820068E0,2.3192574E1,9.825439E0,0E0,0E0,2.8497574E0,3.8778985E-1,2.371883E0,1.0196021E0,9.660828E0,1.5473228E1,3.0725939E1,1.1762904E1,1.3846915E1,8.886898E0,9.269501E0,5.1447716E0,0E0,0E0,5.3804626E0,1.3537598E-1,1.7114435E1,1.1094467E1,3.3317642E0,4.700653E0,0E0,0E0,0E0,0E0,0E0,0E0,0E0,0E0,0E0,0E0,0E0,0E0,0E0,0E0,0E0,0E0,0E0,0E0,0E0,0E0,0E0,0E0,0E0,0E0,0E0,0E0,0E0,0E0,0E0,0E0,0E0,0E0,0E0,0E0,0E0,0E0],"parents":[2147483647,0,0,1,1,2,2,3,3,4,4,5,5,6,6,9,9,10,10,11,11,12,12,13,13,14,14,16,16,17,17,18,18,19,19,20,20,21,21,22,22,23,23,24,24,25,25,26,26,29,29,30,30,31,31,32,32,33,33,34,34,35,35,36,36,37,37,38,38,39,39,40,40,43,43,44,44,45,45,46,46,47,47,48,48],"right_children":[2,4,6,8,10,12,14,-1,-1,16,18,20,22,24,26,-1,28,30,32,34,36,38,40,42,44,46,48,-1,-1,50,52,54,56,58,60,62,64,66,68,70,72,-1,-1,74,76,78,80,82,84,-1,-1,-1,-1,-1,-1,-1,-1,-1,-1,-1,-1,-1,-1,-1,-1,-1,-1,-1,-1,-1,-1,-1,-1,-1,-1,-1,-1,-1,-1,-1,-1,-1,-1,-1,-1],"split_conditions":[-4.3735933E-1,-5.2810675E-1,6.267276E-1,8.008201E-1,-1.4876425E-2,-6.352279E-1,7.4792236E-1,-1.8376876E-2,-7.2348886E-3,-1.66106E0,2.0448805E-1,2.0143425E-1,-8.32412E-2,-1.3520852E0,9.639988E-1,2.5134222E-3,6.707035E-1,1.3837633E0,-2.8451902E-1,-3.1342587E-1,-4.6035102E-1,3.2660097E-1,3.9914303E0,-8.1032956E-1,-1.8241177E-1,-9.5606554E-1,-1.9781037E-1,-2.1715317E-2,-5.817911E-3,3.8235655E-1,-4.8405007E-2,5.3498936E-1,-1.4824041E0,5.091752E-1,9.666467E-1,1.2817487E0,6.075627E-1,3.0291507E-3,-1.2434784E0,-1.1854844E0,1.1748593E0,-2.4984311E-2,1.7866176E-2,2.1673756E0,-2.3832607E0,3.1674016E-1,5.246535E-2,-4.456305E-1,7.244074E-1,1.4226506E-2,-1.9424943E-2,-3.0666706E-3,-2.2516198E-2,1.9386088E-2,-2.0295875E-2,2.0368833E-3,-2.1301808E-2,-1.5265237E-2,-7.946144E-3,-7.7624577E-3,1.1192544E-2,-6.6504288E-3,1.707535E-2,2.6348287E-3,1.5951313E-2,-7.295472E-3,4.82735E-3,-5.9257853E-3,1.4093715E-2,1.7470721E-2,1.278078E-2,1.4549208E-2,-2.5209455E-2,1.6383117E-2,-1.283612E-2,6.2599042E-3,1.8164946E-2,-5.381397E-3,1.2307708E-2,7.82027E-3,1.7028682E-2,1.4910313E-2,9.826E-3,1.7158467E-2,1.2529892E-2],"split_indices":[108,108,108,126,13,127,125,0,0,5,27,108,13,25,108,0,33,20,109,13,13,48,87,71,88,13,26,0,0,125,33,7,56,48,91,18,91,108,132,71,16,0,0,52,11,48,13,76,112,0,0,0,0,0,0,0,0,0,0,0,0,0,0,0,0,0,0,0,0,0,0,0,0,0,0,0,0,0,0,0,0,0,0,0,0],"split_type":[0,0,0,0,0,0,0,0,0,0,0,0,0,0,0,0,0,0,0,0,0,0,0,0,0,0,0,0,0,0,0,0,0,0,0,0,0,0,0,0,0,0,0,0,0,0,0,0,0,0,0,0,0,0,0,0,0,0,0,0,0,0,0,0,0,0,0,0,0,0,0,0,0,0,0,0,0,0,0,0,0,0,0,0,0],"sum_hessian":[4.643E4,1.3982E4,3.2448E4,1.3793E4,1.89E2,1.6346E4,1.6102E4,1.3788E4,5E0,6.3E1,1.26E2,9.298E3,7.048E3,7.82E3,8.282E3,5E0,5.8E1,8.1E1,4.5E1,5.278E3,4.02E3,1.813E3,5.235E3,3.6E1,7.784E3,2.518E3,5.764E3,5.2E1,6E0,6.8E1,1.3E1,1.4E1,3.1E1,4.119E3,1.159E3,2.732E3,1.288E3,1.012E3,8.01E2,5.194E3,4.1E1,1.2E1,2.4E1,1.99E3,5.794E3,7E2,1.818E3,1.447E3,4.317E3,6.2E1,6E0,5E0,8E0,9E0,5E0,5E0,2.6E1,3.596E3,5.23E2,1.04E3,1.19E2,2.589E3,1.43E2,1.093E3,1.95E2,3.71E2,6.41E2,5.9E1,7.42E2,1.504E3,3.69E3,1E1,3.1E1,1.975E3,1.5E1,5E0,5.789E3,5.15E2,1.85E2,1.387E3,4.31E2,5.14E2,9.33E2,3.644E3,6.73E2],"tree_param":{"num_deleted":"0","num_feature":"133","num_nodes":"85","size_leaf_vector":"1"}},{"base_weights":[-4.6114066E-5,-3.457356E-1,1.4915107E-1,-3.490291E-1,-1.1710422E-1,1.0825891E-2,2.8929567E-1,-1.745444E-2,-8.353391E-3,-3.5176712E-1,-9.184313E-3,-1.5060809E-1,2.2556236E-1,2.2921935E-1,3.2514825E-1,-1.3810305E-1,-2.097189E-2,-2.330668E-2,4.4923075E-2,-2.2620061E-1,-2.6326468E-2,1.11576274E-1,2.6521093E-1,1.298498E-1,2.9689717E-1,2.886125E-1,3.419742E-1,1.3701478E-2,-1.9845268E-2,3.22122E-1,-4.4951558E-2,-2.7709424E-1,-1.0152298E-1,-5.691207E-2,2.2717915E-1,1.5948711E-2,2.4850821E-1,2.7171478E-1,-1.4313473E-1,1.9602503E-1,-1.196828E-2,3.1262654E-1,1.7854726E-1,2.9131556E-1,-3.3884045E-1,-7.7388547E-3,3.423709E-1,2.0340888E-2,4.6789604E-3,4.975524E-3,-1.0846526E-2,-1.4765671E-2,-7.5671882E-3,-6.8274597E-3,1.0738221E-2,-8.783286E-3,9.511698E-4,1.7438455E-2,5.5976054E-3,-2.2387845E-3,9.462503E-3,5.3300224E-3,1.713256E-2,1.5848538E-2,1.1405856E-2,1.5619831E-2,-1.6385226E-2,3.724301E-3,1.2590185E-2,-3.9918325E-3,5.3454987E-3,-1.2219305E-2,1.5760534E-2,2.4623394E-3,1.21908365E-2,1.6996747E-2,1.2903571E-2,-2.2422848E-2,-5.06378E-3,1.7262025E-2,1.3645278E-2],"categories":[],"categories_nodes":[],"categories_segments":[],"categories_sizes":[],"default_left":[0,0,0,0,0,0,0,0,0,0,0,0,0,0,0,0,0,0,0,0,0,0,0,0,0,0,0,0,0,0,0,0,0,0,0,0,0,0,0,0,0,0,0,0,0,0,0,0,0,0,0,0,0,0,0,0,0,0,0,0,0,0,0,0,0,0,0,0,0,0,0,0,0,0,0,0,0,0,0,0,0],"id":7,"left_children":[1,3,5,7,9,11,13,-1,-1,15,17,19,21,23,25,27,-1,-1,29,31,33,35,37,39,41,43,45,-1,-1,47,49,51,53,55,57,59,61,63,65,67,69,71,73,75,77,-1,79,-1,-1,-1,-1,-1,-1,-1,-1,-1,-1,-1,-1,-1,-1,-1,-1,-1,-1,-1,-1,-1,-1,-1,-1,-1,-1,-1,-1,-1,-1,-1,-1,-1,-1],"loss_changes":[2.3981445E3,1.04678955E1,6.295893E2,4.0283203E-2,5.050958E0,5.6672266E2,3.4618774E1,0E0,0E0,7.972245E-1,3.499743E0,8.7640686E1,3.1640747E1,4.049814E1,6.047241E0,1.9342861E0,0E0,0E0,3.1563406E0,3.674945E1,2.7373941E1,2.3709862E1,1.387262E1,2.2985462E1,6.5743713E0,5.50943E0,1.4331055E0,0E0,0E0,5.119455E-1,2.3935497E0,9.347565E0,1.8677444E1,2.8442526E1,5.2388554E0,1.127267E1,9.871464E0,9.98111E0,6.9982452E0,1.1263237E1,6.2908564E0,4.6397705E0,3.5369806E0,4.99234E0,2.641834E-1,0E0,1.2200317E0,0E0,0E0,0E0,0E0,0E0,0E0,0E0,0E0,0E0,0E0,0E0,0E0,0E0,0E0,0E0,0E0,0E0,0E0,0E0,0E0,0E0,0E0,0E0,0E0,0E0,0E0,0E0,0E0,0E0,0E0,0E0,0E0,0E0,0E0],"parents":[2147483647,0,0,1,1,2,2,3,3,4,4,5,5,6,6,9,9,10,10,11,11,12,12,13,13,14,14,15,15,18,18,19,19,20,20,21,21,22,22,23,23,24,24,25,25,26,26,29,29,30,30,31,31,32,32,33,33,34,34,35,35,36,36,37,37,38,38,39,39,40,40,41,41,42,42,43,43,44,44,46,46],"right_children":[2,4,6,8,10,12,14,-1,-1,16,18,20,22,24,26,28,-1,-1,30,32,34,36,38,40,42,44,46,-1,-1,48,50,52,54,56,58,60,62,64,66,68,70,72,74,76,78,-1,80,-1,-1,-1,-1,-1,-1,-1,-1,-1,-1,-1,-1,-1,-1,-1,-1,-1,-1,-1,-1,-1,-1,-1,-1,-1,-1,-1,-1,-1,-1,-1,-1,-1,-1],"split_conditions":[-4.3735933E-1,-5.2810675E-1,6.267276E-1,7.7729404E-1,-5.2104324E-2,-6.352279E-1,-5.6479186E-1,-1.745444E-2,-8.353391E-3,-1.0648782E0,-1.5718981E0,2.5048575E-1,-8.32412E-2,1.0526077E0,-5.08894E-1,2.3515017E-1,-2.097189E-2,-2.330668E-2,-9.077783E-1,-4.4950885E-1,7.654941E-1,1.2384968E0,1.9057997E0,1.8090071E-1,9.3686694E-1,2.6599858E0,-3.293578E0,1.3701478E-2,-1.9845268E-2,1.2701201E0,-3.061572E-1,5.091752E-1,7.1896976E-1,-9.7145176E-1,-4.866623E-1,5.216927E-1,-1.1871783E-1,-4.7183773E-1,-2.0739807E-2,-7.80754E-1,-7.755893E-1,-2.1471455E0,-2.3039031E-1,-6.18228E-1,2.3289508E-1,-7.7388547E-3,1.2425607E0,2.0340888E-2,4.6789604E-3,4.975524E-3,-1.0846526E-2,-1.4765671E-2,-7.5671882E-3,-6.8274597E-3,1.0738221E-2,-8.783286E-3,9.511698E-4,1.7438455E-2,5.5976054E-3,-2.2387845E-3,9.462503E-3,5.3300224E-3,1.713256E-2,1.5848538E-2,1.1405856E-2,1.5619831E-2,-1.6385226E-2,3.724301E-3,1.2590185E-2,-3.9918325E-3,5.3454987E-3,-1.2219305E-2,1.5760534E-2,2.4623394E-3,1.21908365E-2,1.6996747E-2,1.2903571E-2,-2.2422848E-2,-5.06378E-3,1.7262025E-2,1.3645278E-2],"split_indices":[108,108,108,126,13,127,126,0,0,94,104,108,13,108,91,122,0,0,81,13,55,102,96,58,112,11,71,0,0,124,86,48,17,13,86,48,90,103,39,91,13,13,117,128,28,0,108,0,0,0,0,0,0,0,0,0,0,0,0,0,0,0,0,0,0,0,0,0,0,0,0,0,0,0,0,0,0,0,0,0,0],"split_type":[0,0,0,0,0,0,0,0,0,0,0,0,0,0,0,0,0,0,0,0,0,0,0,0,0,0,0,0,0,0,0,0,0,0,0,0,0,0,0,0,0,0,0,0,0,0,0,0,0,0,0,0,0,0,0,0,0,0,0,0,0,0,0,0,0,0,0,0,0,0,0,0,0,0,0,0,0,0,0,0,0],"sum_hessian":[4.6495E4,1.4017E4,3.2478E4,1.3817E4,2E2,1.6346E4,1.6132E4,1.3811E4,6E0,6.2E1,1.38E2,9.331E3,7.015E3,6.033E3,1.0099E4,1.6E1,4.6E1,1.4E1,1.24E2,5.801E3,3.53E3,1.812E3,5.203E3,2.446E3,3.587E3,3.192E3,6.907E3,6E0,1E1,3E1,9.4E1,4.118E3,1.683E3,3.151E3,3.79E2,1.068E3,7.44E2,5.122E3,8.1E1,1.668E3,7.78E2,3.164E3,4.23E2,3.179E3,1.3E1,5E0,6.902E3,2.1E1,9E0,5.1E1,4.3E1,3.595E3,5.23E2,1.516E3,1.67E2,1.229E3,1.922E3,1.83E2,1.96E2,7.91E2,2.77E2,2.98E2,4.46E2,2.509E3,2.613E3,2.3E1,5.8E1,5.26E2,1.142E3,4.96E2,2.82E2,1.4E1,3.15E3,1.43E2,2.8E2,1.286E3,1.893E3,8E0,5E0,6.623E3,2.79E2],"tree_param":{"num_deleted":"0","num_feature":"133","num_nodes":"81","size_leaf_vector":"1"}},{"base_weights":[7.4078294E-4,-3.0669272E-1,1.20523274E-1,-3.2228586E-1,-1.5586874E-1,-1.1045444E-3,2.3511824E-1,-3.2450494E-1,-6.334423E-2,-2.8284726E-1,2.273316E-1,-1.560946E-1,8.0558084E-2,-3.7790082E-2,2.4873048E-1,-3.284144E-1,-2.580702E-1,-3.3116195E-1,8.624061E-2,-3.0701676E-1,-1.2441218E-1,1.6509235E-2,2.5780362E-1,-2.148806E-1,-7.666925E-2,-1.0695403E-1,1.22438245E-1,-1.48311E-1,1.505832E-1,1.724564E-1,2.8403777E-1,-1.6558003E-2,-2.9725373E-1,-3.175852E-1,2.285114E-1,-1.1274973E-3,-1.8777644E-2,2.7922153E-1,-1.3742243E-1,-3.1303447E-1,1.4234215E-1,-2.4855736E-1,1.6045736E-1,-1.7621572E-1,2.2304498E-1,-5.702983E-3,2.6868048E-1,-2.4557376E-1,-1.4102088E-1,-1.7162043E-1,1.1508256E-2,-2.0492798E-1,-2.540643E-2,1.6607235E-1,-5.612454E-2,-2.6745474E-1,-2.2534683E-2,1.879852E-1,-2.419131E-2,-8.033164E-2,1.954171E-1,2.948905E-1,1.8508111E-1,-1.6182898E-2,3.9156704E-4,-1.6458869E-2,-5.8380137E-3,-7.449613E-3,1.4670754E-2,1.8665824E-2,-1.6715834E-3,-1.3973384E-2,8.940967E-3,-1.5776556E-2,-2.5522138E-3,-1.3731663E-3,1.5254529E-2,-1.4736495E-2,4.407778E-3,-8.428805E-3,1.3591622E-2,1.4418773E-2,-1.7283697E-2,1.7690891E-2,-6.219731E-3,-8.136364E-4,1.4210582E-2,1.6701672E-3,-1.2640818E-2,-1.2186055E-2,-2.7733836E-3,-1.0309857E-2,-5.452626E-4,4.2089024E-3,-3.0509287E-3,-1.5639624E-2,-8.076914E-3,7.6830722E-3,-3.4034476E-3,-4.768241E-3,9.3806125E-3,-1.0087395E-2,3.1403087E-3,-3.644988E-3,-1.6363842E-2,-7.3453593E-3,6.3560097E-3,1.0812073E-2,-1.2037341E-2,-7.715434E-3,8.013179E-3,5.1574768E-3,1.1946098E-2,1.496566E-2,7.0834705E-3,-1.6369883E-2,1.0943517E-2],"categories":[],"categories_nodes":[],"categories_segments":[],"categories_sizes":[],"default_left":[0,0,0,0,0,0,0,0,0,0,0,0,0,0,0,0,0,0,0,0,0,0,0,0,0,0,0,0,0,0,0,0,0,0,0,0,0,0,0,0,0,0,0,0,0,0,0,0,0,0,0,0,0,0,0,0,0,0,0,0,0,0,0,0,0,0,0,0,0,0,0,0,0,0,0,0,0,0,0,0,0,0,0,0,0,0,0,0,0,0,0,0,0,0,0,0,0,0,0,0,0,0,0,0,0,0,0,0,0,0,0,0,0,0,0,0,0],"id":8,"left_children":[1,3,5,7,9,11,13,15,17,19,21,23,25,27,29,31,33,35,37,39,41,43,45,47,49,51,53,55,57,59,61,-1,63,65,67,-1,-1,69,71,73,75,77,79,81,83,-1,85,87,89,91,93,95,97,99,101,103,105,107,-1,109,111,113,115,-1,-1,-1,-1,-1,-1,-1,-1,-1,-1,-1,-1,-1,-1,-1,-1,-1,-1,-1,-1,-1,-1,-1,-1,-1,-1,-1,-1,-1,-1,-1,-1,-1,-1,-1,-1,-1,-1,-1,-1,-1,-1,-1,-1,-1,-1,-1,-1,-1,-1,-1,-1,-1,-1],"loss_changes":[1.7121669E3,3.0560303E1,4.6637302E2,6.7286377E0,5.9627502E1,2.0546686E2,6.40307E1,2.8984375E0,4.1393213E0,3.4416122E0,1.9276896E0,2.6110657E1,8.350028E1,1.707302E1,4.4098083E1,7.8466797E-1,1.9107483E1,4.586053E-1,2.9012897E0,2.2167969E0,4.433975E0,1.6361706E0,1.1219978E0,7.221878E0,1.9986538E1,1.5479458E1,6.7735596E1,7.7124577E0,7.251009E0,3.0185776E1,1.194165E1,0E0,7.348549E0,1.2811775E0,1.8222582E0,0E0,0E0,1.105556E0,1.4525787E0,4.6201324E-1,3.401329E-1,1.399219E0,1.4487028E0,1.7587185E0,9.7566855E-1,0E0,1.1776619E0,4.618973E0,8.286007E0,6.361038E0,6.527072E0,4.025299E0,8.107396E0,3.9361954E1,2.9590252E1,3.020378E0,4.7297306E0,3.526432E0,0E0,7.7308955E0,1.9064255E1,6.760498E0,1.9316486E1,0E0,0E0,0E0,0E0,0E0,0E0,0E0,0E0,0E0,0E0,0E0,0E0,0E0,0E0,0E0,0E0,0E0,0E0,0E0,0E0,0E0,0E0,0E0,0E0,0E0,0E0,0E0,0E0,0E0,0E0,0E0,0E0,0E0,0E0,0E0,0E0,0E0,0E0,0E0,0E0,0E0,0E0,0E0,0E0,0E0,0E0,0E0,0E0,0E0,0E0,0E0,0E0,0E0,0E0],"parents":[2147483647,0,0,1,1,2,2,3,3,4,4,5,5,6,6,7,7,8,8,9,9,10,10,11,11,12,12,13,13,14,14,15,15,16,16,17,17,18,18,19,19,20,20,21,21,22,22,23,23,24,24,25,25,26,26,27,27,28,28,29,29,30,30,32,32,33,33,34,34,37,37,38,38,39,39,40,40,41,41,42,42,43,43,44,44,46,46,47,47,48,48,49,49,50,50,51,51,52,52,53,53,54,54,55,55,56,56,57,57,59,59,60,60,61,61,62,62],"right_children":[2,4,6,8,10,12,14,16,18,20,22,24,26,28,30,32,34,36,38,40,42,44,46,48,50,52,54,56,58,60,62,-1,64,66,68,-1,-1,70,72,74,76,78,80,82,84,-1,86,88,90,92,94,96,98,100,102,104,106,108,-1,110,112,114,116,-1,-1,-1,-1,-1,-1,-1,-1,-1,-1,-1,-1,-1,-1,-1,-1,-1,-1,-1,-1,-1,-1,-1,-1,-1,-1,-1,-1,-1,-1,-1,-1,-1,-1,-1,-1,-1,-1,-1,-1,-1,-1,-1,-1,-1,-1,-1,-1,-1,-1,-1,-1,-1,-1],"split_conditions":[-6.30291E-1,-6.309199E-1,-2.9318953E-1,1.7534973E-1,1.2032777E0,-3.431202E-1,-2.5574207E-1,2.2411544E0,1.9056072E0,6.039379E-1,-9.5992297E-1,-4.579621E-1,-2.1493076E-1,4.101335E-1,-1.7434368E-1,-6.3129497E-1,-6.317133E-1,-1.197637E0,1.7818992E-1,2.249301E0,6.153312E-1,1.3632222E-1,-2.4967291E0,6.8664616E-1,-6.368562E-1,-7.1869147E-1,1.7148419E-1,1.7534973E-1,3.1309881E0,-7.2088784E-1,1.5341326E0,-1.6558003E-2,1.0660096E0,-6.321971E-1,-2.1348064E-1,-1.1274973E-3,-1.8777644E-2,1.0177481E0,2.3147497E-1,2.8503294E0,1.5700822E0,9.402232E-1,-3.6960486E-1,1.3496076E-1,1.1621826E0,-5.702983E-3,-6.054179E-1,-1.5128281E0,-1.204912E0,6.283528E-1,3.4528476E-1,2.50127E-2,-1.3079066E-2,-3.9409226E-1,-6.111899E-1,6.960464E-1,3.9397734E-1,9.4563836E-1,-2.419131E-2,5.3572434E-1,-3.9604843E-1,3.83379E-1,1.2395099E-1,-1.6182898E-2,3.9156704E-4,-1.6458869E-2,-5.8380137E-3,-7.449613E-3,1.4670754E-2,1.8665824E-2,-1.6715834E-3,-1.3973384E-2,8.940967E-3,-1.5776556E-2,-2.5522138E-3,-1.3731663E-3,1.5254529E-2,-1.4736495E-2,4.407778E-3,-8.428805E-3,1.3591622E-2,1.4418773E-2,-1.7283697E-2,1.7690891E-2,-6.219731E-3,-8.136364E-4,1.4210582E-2,1.6701672E-3,-1.2640818E-2,-1.2186055E-2,-2.7733836E-3,-1.0309857E-2,-5.452626E-4,4.2089024E-3,-3.0509287E-3,-1.5639624E-2,-8.076914E-3,7.6830722E-3,-3.4034476E-3,-4.768241E-3,9.3806125E-3,-1.0087395E-2,3.1403087E-3,-3.644988E-3,-1.6363842E-2,-7.3453593E-3,6.3560097E-3,1.0812073E-2,-1.2037341E-2,-7.715434E-3,8.013179E-3,5.1574768E-3,1.1946098E-2,1.496566E-2,7.0834705E-3,-1.6369883E-2,1.0943517E-2],"split_indices":[128,128,126,126,127,26,99,127,127,129,102,110,28,127,127,128,128,6,77,102,102,33,3,66,26,110,28,126,87,26,124,0,127,128,99,0,0,111,4,110,73,127,99,57,124,0,99,87,110,66,9,99,39,30,110,124,114,33,0,88,98,99,126,0,0,0,0,0,0,0,0,0,0,0,0,0,0,0,0,0,0,0,0,0,0,0,0,0,0,0,0,0,0,0,0,0,0,0,0,0,0,0,0,0,0,0,0,0,0,0,0,0,0,0,0,0,0],"split_type":[0,0,0,0,0,0,0,0,0,0,0,0,0,0,0,0,0,0,0,0,0,0,0,0,0,0,0,0,0,0,0,0,0,0,0,0,0,0,0,0,0,0,0,0,0,0,0,0,0,0,0,0,0,0,0,0,0,0,0,0,0,0,0,0,0,0,0,0,0,0,0,0,0,0,0,0,0,0,0,0,0,0,0,0,0,0,0,0,0,0,0,0,0,0,0,0,0,0,0,0,0,0,0,0,0,0,0,0,0,0,0,0,0,0,0,0,0],"sum_hessian":[4.6493E4,1.3035E4,3.3458E4,1.1812E4,1.223E3,1.6231E4,1.7227E4,1.1711E4,1.01E2,9.19E2,3.04E2,5.601E3,1.063E4,8.18E2,1.6409E4,1.1055E4,6.56E2,3.6E1,6.5E1,7.96E2,1.23E2,3.9E1,2.65E2,3.217E3,2.384E3,1.94E3,8.69E3,5.16E2,3.02E2,5.195E3,1.1214E4,1.0148E4,9.07E2,5.85E2,7.1E1,5E0,3.1E1,3.5E1,3E1,7.86E2,1E1,8.6E1,3.7E1,2E1,1.9E1,7E0,2.58E2,2.27E3,9.47E2,1.148E3,1.236E3,8.8E2,1.06E3,6.984E3,1.706E3,2.64E2,2.52E2,2.86E2,1.6E1,4.32E2,4.763E3,1.0103E4,1.111E3,8.35E2,7.2E1,5.52E2,3.3E1,1E1,6.1E1,2.7E1,8E0,2.1E1,9E0,7.78E2,8E0,5E0,5E0,7.6E1,1E1,9E0,2.8E1,5E0,1.5E1,1.4E1,5E0,1.3E1,2.45E2,5.7E1,2.213E3,4.29E2,5.18E2,9.44E2,2.04E2,6.18E2,6.18E2,2.5E2,6.3E2,2.03E2,8.57E2,5.31E2,6.453E3,7.67E2,9.39E2,6.3E1,2.01E2,1.38E2,1.14E2,2.69E2,1.7E1,3.31E2,1.01E2,1.528E3,3.235E3,9.818E3,2.85E2,6.8E1,1.043E3],"tree_param":{"num_deleted":"0","num_feature":"133","num_nodes":"117","size_leaf_vector":"1"}},{"base_weights":[6.90926E-4,-3.1378344E-1,1.3609885E-1,-1.5824633E-2,-1.13636434E-1,7.756063E-3,2.6289678E-1,-2.838219E-1,2.4262628E-2,2.2227532E-1,-1.3186489E-1,2.1700661E-1,3.027744E-1,1.1598381E-2,-3.7055802E-1,1.01623274E-1,-3.4973738E-1,1.648162E-1,2.783504E-1,-2.2436608E-1,-3.804106E-2,1.382697E-1,2.7174988E-1,1.6842268E-1,3.0606434E-1,-1.594771E-2,1.920232E-2,-2.0391481E-2,-3.9039582E-3,2.2405933E-1,-1.3922173E-1,-2.8706715E-3,-2.2503046E-2,7.310826E-2,2.3279127E-1,2.8735346E-1,5.40584E-2,-2.528716E-1,-6.609686E-2,-1.0968637E-1,9.151382E-2,2.6408374E-1,9.01424E-2,2.9464585E-1,1.9502667E-1,-3.0734062E-2,2.3731636E-1,2.8014544E-1,3.1593183E-1,-1.4083855E-2,1.4425698E-2,4.0312647E-3,-1.714385E-2,-2.8015673E-3,8.485204E-3,1.2026222E-2,-1.7394774E-2,-2.7481867E-3,1.4537619E-2,-1.1658754E-2,1.1169117E-2,-1.3970884E-2,-8.769333E-3,9.774481E-3,-7.1664876E-3,-7.995351E-3,2.1139553E-3,-9.2567745E-5,8.51856E-3,8.0483835E-3,1.4894697E-2,-2.523706E-4,7.854904E-3,-1.218178E-2,1.4823322E-2,-9.377523E-3,1.0200287E-2,-1.7026119E-2,1.1772014E-2,-4.1487883E-3,1.4120683E-2,1.0003757E-2,1.4688251E-2,1.5811685E-2,-0E0],"categories":[],"categories_nodes":[],"categories_segments":[],"categories_sizes":[],"default_left":[0,0,0,0,0,0,0,0,0,0,0,0,0,0,0,0,0,0,0,0,0,0,0,0,0,0,0,0,0,0,0,0,0,0,0,0,0,0,0,0,0,0,0,0,0,0,0,0,0,0,0,0,0,0,0,0,0,0,0,0,0,0,0,0,0,0,0,0,0,0,0,0,0,0,0,0,0,0,0,0,0,0,0,0,0],"id":9,"left_children":[1,3,5,-1,7,9,11,13,15,17,19,21,23,25,27,29,31,33,35,37,39,41,43,45,47,-1,-1,-1,-1,49,51,-1,-1,53,55,57,59,61,63,65,67,69,71,73,75,77,79,81,83,-1,-1,-1,-1,-1,-1,-1,-1,-1,-1,-1,-1,-1,-1,-1,-1,-1,-1,-1,-1,-1,-1,-1,-1,-1,-1,-1,-1,-1,-1,-1,-1,-1,-1,-1,-1],"loss_changes":[1.9804009E3,7.5112305E0,5.290257E2,0E0,4.468373E0,4.8399283E2,2.9808105E1,2.2182007E0,3.0486825E0,2.0437347E1,8.491348E1,3.2714325E1,3.7668457E0,2.5912755E0,6.390419E-1,2.6346316E0,4.512987E-1,1.9589027E1,6.456543E0,2.2184296E1,4.513165E1,1.8850826E1,7.7738953E0,2.936727E0,2.034729E0,0E0,0E0,0E0,0E0,2.0051777E0,1.3970597E0,0E0,0E0,1.677392E1,8.191841E0,3.642929E0,6.1791816E0,8.493134E0,1.5255926E1,2.3913715E1,1.2761712E1,2.914898E0,1.4426477E1,3.4605103E0,3.5953255E0,4.625855E0,2.3255777E0,2.470932E0,5.776367E-1,0E0,0E0,0E0,0E0,0E0,0E0,0E0,0E0,0E0,0E0,0E0,0E0,0E0,0E0,0E0,0E0,0E0,0E0,0E0,0E0,0E0,0E0,0E0,0E0,0E0,0E0,0E0,0E0,0E0,0E0,0E0,0E0,0E0,0E0,0E0,0E0],"parents":[2147483647,0,0,1,1,2,2,4,4,5,5,6,6,7,7,8,8,9,9,10,10,11,11,12,12,13,13,14,14,15,15,16,16,17,17,18,18,19,19,20,20,21,21,22,22,23,23,24,24,29,29,30,30,33,33,34,34,35,35,36,36,37,37,38,38,39,39,40,40,41,41,42,42,43,43,44,44,45,45,46,46,47,47,48,48],"right_children":[2,4,6,-1,8,10,12,14,16,18,20,22,24,26,28,30,32,34,36,38,40,42,44,46,48,-1,-1,-1,-1,50,52,-1,-1,54,56,58,60,62,64,66,68,70,72,74,76,78,80,82,84,-1,-1,-1,-1,-1,-1,-1,-1,-1,-1,-1,-1,-1,-1,-1,-1,-1,-1,-1,-1,-1,-1,-1,-1,-1,-1,-1,-1,-1,-1,-1,-1,-1,-1,-1,-1],"split_conditions":[-4.3735933E-1,-5.2810675E-1,6.1312115E-1,-1.5824633E-2,3.372506E-1,5.262479E-1,-1.6063005E-1,-7.97777E-1,1.4882106E0,3.476173E-1,1.5578115E-1,1.0248954E0,-1.0519112E0,-3.8346562E-1,1.4975177E0,2.1049832E-1,-8.445755E-1,1.8175164E-2,2.6020834E0,5.928204E-1,-4.7057256E-1,7.4792236E-1,6.35927E-1,6.5578796E-2,1.4366463E-1,-1.594771E-2,1.920232E-2,-2.0391481E-2,-3.9039582E-3,-1.3590081E0,-6.945703E-2,-2.8706715E-3,-2.2503046E-2,3.593981E-1,2.0442462E0,-1.6935836E0,2.918461E-1,1.5361135E-1,-6.604989E-1,2.9617092E-1,-2.8612304E-1,-9.0090233E-1,-6.104286E-2,-2.1471455E0,-1.3117411E0,-7.584163E-1,-5.25904E-1,7.8450006E-1,2.4754195E0,-1.4083855E-2,1.4425698E-2,4.0312647E-3,-1.714385E-2,-2.8015673E-3,8.485204E-3,1.2026222E-2,-1.7394774E-2,-2.7481867E-3,1.4537619E-2,-1.1658754E-2,1.1169117E-2,-1.3970884E-2,-8.769333E-3,9.774481E-3,-7.1664876E-3,-7.995351E-3,2.1139553E-3,-9.2567745E-5,8.51856E-3,8.0483835E-3,1.4894697E-2,-2.523706E-4,7.854904E-3,-1.218178E-2,1.4823322E-2,-9.377523E-3,1.0200287E-2,-1.7026119E-2,1.1772014E-2,-4.1487883E-3,1.4120683E-2,1.0003757E-2,1.4688251E-2,1.5811685E-2,-0E0],"split_indices":[108,108,108,0,13,125,13,81,20,48,108,108,20,132,102,27,64,108,24,132,13,125,112,52,13,0,0,0,0,86,53,0,0,13,96,130,13,90,58,48,26,91,11,13,48,91,11,108,104,0,0,0,0,0,0,0,0,0,0,0,0,0,0,0,0,0,0,0,0,0,0,0,0,0,0,0,0,0,0,0,0,0,0,0,0],"split_type":[0,0,0,0,0,0,0,0,0,0,0,0,0,0,0,0,0,0,0,0,0,0,0,0,0,0,0,0,0,0,0,0,0,0,0,0,0,0,0,0,0,0,0,0,0,0,0,0,0,0,0,0,0,0,0,0,0,0,0,0,0,0,0,0,0,0,0,0,0,0,0,0,0,0,0,0,0,0,0,0,0,0,0,0,0],"sum_hessian":[4.6506E4,1.3997E4,3.2509E4,1.3809E4,1.88E2,1.6157E4,1.6352E4,8.4E1,1.04E2,6.37E3,9.787E3,7.607E3,8.745E3,1.9E1,6.5E1,8.7E1,1.7E1,3.149E3,3.221E3,4.927E3,4.86E3,3.122E3,4.485E3,2.11E2,8.534E3,1E1,9E0,5.7E1,8E0,5.8E1,2.9E1,5E0,1.2E1,1.342E3,1.807E3,3.096E3,1.25E2,4.174E3,7.53E2,3.13E3,1.73E3,8.62E2,2.26E3,3.451E3,1.034E3,5.4E1,1.57E2,2.364E3,6.17E3,6E0,5.2E1,1.4E1,1.5E1,5.74E2,7.68E2,1.784E3,2.3E1,3E1,3.066E3,4.6E1,7.9E1,3.106E3,1.068E3,1.71E2,5.82E2,2.353E3,7.77E2,7.92E2,9.38E2,2.15E2,6.47E2,9.33E2,1.327E3,1.1E1,3.44E3,2.3E1,1.011E3,2.5E1,2.9E1,1.9E1,1.38E2,3.47E2,2.017E3,6.164E3,6E0],"tree_param":{"num_deleted":"0","num_feature":"133","num_nodes":"85","size_leaf_vector":"1"}},{"base_weights":[-1.0131721E-3,-2.7745873E-1,1.0702377E-1,-2.8377295E-1,4.879673E-2,-4.0185037E-3,2.1113032E-1,-2.95111E-1,-1.8822625E-1,-1.5459186E-1,1.68306E-1,-1.3906452E-1,7.3984325E-2,1.3674149E-1,2.4762446E-1,-2.9746005E-1,-2.5483084E-1,-2.7037126E-1,1.8445633E-1,-3.2288918E-1,4.3241912E-3,3.083763E-1,-1.8085724E-2,-2.1916324E-1,-8.712462E-2,-1.2337252E-1,1.0952476E-1,-1.3811418E-2,1.8170923E-1,2.5090662E-1,-1.8637234E-1,-1.4954927E-2,-2.700825E-1,-2.902224E-1,1.7519446E-1,-2.8538892E-1,-1.4724317E-1,-1.6521679E-1,2.1827124E-1,-1.7153008E-2,-5.896726E-3,-3.6826563E-1,1.4152817E-1,3.5815295E-3,3.2938042E-1,2.5846446E-1,-1.6739947E-1,-2.4816683E-1,-9.767015E-2,-1.8439695E-1,-2.3400996E-2,-1.9653626E-1,-4.7353576E-3,-1.3915627E-1,1.3581567E-1,4.5979373E-2,-2.8927028E-1,-6.6091456E-2,1.9828199E-1,1.598804E-1,2.6374587E-1,1.4384135E-2,-2.7489123E-1,-1.4333916E-2,8.54843E-3,-1.4934993E-2,-8.6456025E-3,1.4233205E-2,-7.107859E-3,-1.439759E-2,5.10471E-3,-1.1282453E-2,6.3032233E-3,-1.4116456E-2,5.58926E-3,3.6099013E-3,1.3169631E-2,-2.3840936E-2,-7.274194E-3,1.8196618E-2,-9.371658E-3,1.7366802E-2,5.368679E-3,1.7703839E-2,-3.5359305E-3,-1.4648728E-2,6.2221796E-3,-1.4399419E-2,-9.651726E-3,-8.702498E-3,4.3448363E-3,-7.216926E-3,-1.2155719E-2,-3.362727E-3,4.431173E-3,-1.04030995E-2,6.112186E-3,8.6475955E-3,-3.9235926E-3,-9.682026E-3,1.7475417E-3,8.333446E-3,-4.918855E-3,-7.180445E-3,5.8133123E-3,-1.5231967E-2,-7.2607133E-3,7.43157E-3,-7.192859E-3,3.4668446E-3,1.0752398E-2,-4.9587437E-3,1.1457744E-2,1.0765075E-2,1.3808315E-2,-1.8362327E-2,3.8299833E-3],"categories":[],"categories_nodes":[],"categories_segments":[],"categories_sizes":[],"default_left":[0,0,0,0,0,0,0,0,0,0,0,0,0,0,0,0,0,0,0,0,0,0,0,0,0,0,0,0,0,0,0,0,0,0,0,0,0,0,0,0,0,0,0,0,0,0,0,0,0,0,0,0,0,0,0,0,0,0,0,0,0,0,0,0,0,0,0,0,0,0,0,0,0,0,0,0,0,0,0,0,0,0,0,0,0,0,0,0,0,0,0,0,0,0,0,0,0,0,0,0,0,0,0,0,0,0,0,0,0,0,0,0,0,0,0,0,0],"id":10,"left_children":[1,3,5,7,9,11,13,15,17,19,21,23,25,27,29,31,33,35,37,39,41,43,45,47,49,51,53,55,57,59,61,-1,63,65,67,69,71,73,75,-1,-1,77,79,-1,81,83,85,87,89,91,93,95,97,99,101,103,105,107,109,111,113,-1,115,-1,-1,-1,-1,-1,-1,-1,-1,-1,-1,-1,-1,-1,-1,-1,-1,-1,-1,-1,-1,-1,-1,-1,-1,-1,-1,-1,-1,-1,-1,-1,-1,-1,-1,-1,-1,-1,-1,-1,-1,-1,-1,-1,-1,-1,-1,-1,-1,-1,-1,-1,-1,-1,-1],"loss_changes":[1.3852471E3,2.6886108E1,3.85532E2,1.3747314E1,6.055481E0,1.7000348E2,4.6654053E1,9.501343E-1,4.1693523E1,2.4938061E0,4.1335545E0,2.4533607E1,7.175986E1,3.8391815E1,1.6498413E1,3.463745E-1,9.7874565E0,1.9764557E0,2.9501104E0,9.947729E-2,2.483245E0,3.8384247E-1,2.842067E0,8.126816E0,2.2209087E1,1.3528322E1,5.669693E1,2.1514385E1,1.7952225E1,1.3307739E1,3.728568E0,0E0,4.620697E0,4.8893356E-1,1.756996E0,1.033104E0,2.6955914E0,7.623022E-1,1.4304056E0,0E0,0E0,1.8278778E-1,2.719708E0,0E0,2.4410915E-1,8.087506E-1,1.7024819E0,4.010582E0,6.3675723E0,3.263832E0,1.0659402E1,3.5795937E0,7.826039E0,7.88661E0,5.6679214E1,1.429897E1,4.2663956E-1,4.5961776E0,8.803101E0,2.5518936E1,5.932434E0,0E0,2.4593873E0,0E0,0E0,0E0,0E0,0E0,0E0,0E0,0E0,0E0,0E0,0E0,0E0,0E0,0E0,0E0,0E0,0E0,0E0,0E0,0E0,0E0,0E0,0E0,0E0,0E0,0E0,0E0,0E0,0E0,0E0,0E0,0E0,0E0,0E0,0E0,0E0,0E0,0E0,0E0,0E0,0E0,0E0,0E0,0E0,0E0,0E0,0E0,0E0,0E0,0E0,0E0,0E0,0E0,0E0],"parents":[2147483647,0,0,1,1,2,2,3,3,4,4,5,5,6,6,7,7,8,8,9,9,10,10,11,11,12,12,13,13,14,14,15,15,16,16,17,17,18,18,19,19,20,20,21,21,22,22,23,23,24,24,25,25,26,26,27,27,28,28,29,29,30,30,32,32,33,33,34,34,35,35,36,36,37,37,38,38,41,41,42,42,44,44,45,45,46,46,47,47,48,48,49,49,50,50,51,51,52,52,53,53,54,54,55,55,56,56,57,57,58,58,59,59,60,60,62,62],"right_children":[2,4,6,8,10,12,14,16,18,20,22,24,26,28,30,32,34,36,38,40,42,44,46,48,50,52,54,56,58,60,62,-1,64,66,68,70,72,74,76,-1,-1,78,80,-1,82,84,86,88,90,92,94,96,98,100,102,104,106,108,110,112,114,-1,116,-1,-1,-1,-1,-1,-1,-1,-1,-1,-1,-1,-1,-1,-1,-1,-1,-1,-1,-1,-1,-1,-1,-1,-1,-1,-1,-1,-1,-1,-1,-1,-1,-1,-1,-1,-1,-1,-1,-1,-1,-1,-1,-1,-1,-1,-1,-1,-1,-1,-1,-1,-1,-1,-1],"split_conditions":[-6.30291E-1,1.629194E-1,-3.0265838E-1,-8.949523E-1,1.9056072E0,-3.1346816E-1,-1.508324E-1,2.2411544E0,1.1365094E0,-6.309199E-1,2.7555433E-1,-1.0014598E0,-3.1104285E-1,3.5839882E-1,2.0442462E0,-9.857054E-1,-1.1628282E0,6.473225E-1,-1.0055237E0,1.5901105E0,-6.4409685E-1,-1.0599097E0,-6.8934953E-1,9.756634E-1,-6.8251604E-1,-4.2870843E-1,-3.3207673E-1,1.4287922E0,-7.2088784E-1,-3.6218336E-1,-1.1467873E0,-1.4954927E-2,1.367582E0,-1.466156E0,4.8448557E-1,2.249301E0,9.9265015E-1,1.1899891E0,-2.7025488E-1,-1.7153008E-2,-5.896726E-3,-2.203178E-1,5.580416E-1,3.5815295E-3,1.4188321E0,-2.4288267E-1,5.523616E-1,-1.7129166E-1,7.251399E-2,-4.2572588E-2,2.8612384E-1,9.6599454E-1,-1.7767659E-1,-7.711363E-1,2.302427E-1,-5.882807E-1,1.2573768E0,-4.0417406E-1,-3.002139E-1,6.2233984E-1,-9.251857E-2,1.4384135E-2,8.000142E-1,-1.4333916E-2,8.54843E-3,-1.4934993E-2,-8.6456025E-3,1.4233205E-2,-7.107859E-3,-1.439759E-2,5.10471E-3,-1.1282453E-2,6.3032233E-3,-1.4116456E-2,5.58926E-3,3.6099013E-3,1.3169631E-2,-2.3840936E-2,-7.274194E-3,1.8196618E-2,-9.371658E-3,1.7366802E-2,5.368679E-3,1.7703839E-2,-3.5359305E-3,-1.4648728E-2,6.2221796E-3,-1.4399419E-2,-9.651726E-3,-8.702498E-3,4.3448363E-3,-7.216926E-3,-1.2155719E-2,-3.362727E-3,4.431173E-3,-1.04030995E-2,6.112186E-3,8.6475955E-3,-3.9235926E-3,-9.682026E-3,1.7475417E-3,8.333446E-3,-4.918855E-3,-7.180445E-3,5.8133123E-3,-1.5231967E-2,-7.2607133E-3,7.43157E-3,-7.192859E-3,3.4668446E-3,1.0752398E-2,-4.9587437E-3,1.1457744E-2,1.0765075E-2,1.3808315E-2,-1.8362327E-2,3.8299833E-3],"split_indices":[128,126,126,125,127,26,127,127,127,128,77,13,32,126,96,125,125,129,102,13,116,57,12,102,26,13,37,124,26,125,69,0,127,125,58,102,102,93,126,0,0,11,111,0,52,84,6,55,48,60,48,18,70,127,37,13,88,105,28,127,13,0,129,0,0,0,0,0,0,0,0,0,0,0,0,0,0,0,0,0,0,0,0,0,0,0,0,0,0,0,0,0,0,0,0,0,0,0,0,0,0,0,0,0,0,0,0,0,0,0,0,0,0,0,0,0,0],"split_type":[0,0,0,0,0,0,0,0,0,0,0,0,0,0,0,0,0,0,0,0,0,0,0,0,0,0,0,0,0,0,0,0,0,0,0,0,0,0,0,0,0,0,0,0,0,0,0,0,0,0,0,0,0,0,0,0,0,0,0,0,0,0,0,0,0,0,0,0,0,0,0,0,0,0,0,0,0,0,0,0,0,0,0,0,0,0,0,0,0,0,0,0,0,0,0,0,0,0,0,0,0,0,0,0,0,0,0,0,0,0,0,0,0,0,0,0,0],"sum_hessian":[4.6379E4,1.3032E4,3.3347E4,1.2785E4,2.47E2,1.6136E4,1.7211E4,1.1426E4,1.359E3,9.1E1,1.56E2,5.908E3,1.0228E4,5.667E3,1.1544E4,1.0788E4,6.38E2,1.114E3,2.45E2,4.4E1,4.7E1,8.9E1,6.7E1,2.322E3,3.586E3,1.56E3,8.668E3,1.303E3,4.364E3,1.1458E4,8.6E1,1.0166E4,6.22E2,5.9E2,4.8E1,9.91E2,1.23E2,2.1E1,2.24E2,3.9E1,5E0,1.2E1,3.5E1,8E0,8.1E1,2.3E1,4.4E1,1.873E3,4.49E2,1.418E3,2.168E3,9.64E2,5.96E2,8.28E2,7.84E3,1.071E3,2.32E2,2.73E2,4.091E3,1.419E3,1.0039E4,1.3E1,7.3E1,6E2,2.2E1,5.48E2,4.2E1,3.6E1,1.2E1,9.85E2,6E0,9.6E1,2.7E1,1.5E1,6E0,5.4E1,1.7E2,7E0,5E0,2.1E1,1.4E1,7.4E1,7E0,1.8E1,5E0,3.1E1,1.3E1,1.084E3,7.89E2,3.18E2,1.31E2,8.46E2,5.72E2,1.559E3,6.09E2,9.31E2,3.3E1,1.74E2,4.22E2,6.31E2,1.97E2,6.928E3,9.12E2,2.89E2,7.82E2,2.08E2,2.4E1,7.2E1,2.01E2,4.72E2,3.619E3,2.99E2,1.12E3,2.054E3,7.985E3,5.8E1,1.5E1],"tree_param":{"num_deleted":"0","num_feature":"133","num_nodes":"117","size_leaf_vector":"1"}},{"base_weights":[1.8093148E-3,-2.8479606E-1,1.2438309E-1,-2.870512E-1,-1.0082048E-1,-6.8317507E-3,2.3029405E-1,-1.4242007E-2,-1.5343788E-2,-2.7934486E-1,5.248653E-2,2.0650826E-1,-1.4324951E-1,1.8333778E-1,2.7403915E-1,7.249608E-2,-3.714393E-1,2.0878625E-1,-1.8279105E-1,-2.9965886E-1,2.1348266E-1,-1.9855732E-1,-2.6272938E-2,9.511706E-2,2.4137637E-1,2.2478753E-1,2.8419554E-1,-1.8455034E-2,2.9558644E-1,-1.9949874E-2,-3.984422E-3,-1.1699389E-2,2.5874424E-1,1.9412915E-1,-3.332848E-1,-4.6218237E-1,1.2311273E-1,2.7592844E-1,1.7218031E-1,-2.6533827E-1,-1.3683908E-1,-1.3352695E-1,5.805292E-2,4.8197288E-2,2.1910077E-1,2.618694E-1,1.5504749E-1,-2.654117E-1,2.3314889E-1,2.936115E-1,2.670987E-1,1.7972253E-2,7.757681E-3,1.7359272E-2,-9.3952095E-4,4.772675E-4,1.6484572E-2,5.086794E-4,-2.081757E-2,-2.5381166E-2,-2.864632E-3,1.699576E-2,-1.8786877E-2,1.3912168E-2,-1.9263498E-2,4.7671087E-3,1.2472642E-2,-1.374145E-2,-8.2238065E-3,-9.232105E-3,-1.1982305E-3,-7.932401E-3,9.741752E-3,-1.6673366E-3,8.484018E-3,6.8285214E-3,-2.9505535E-3,5.7636877E-3,1.3032557E-2,-1.0682617E-2,1.3187758E-2,8.689719E-3,-4.820573E-3,-3.033042E-2,1.3846486E-2,1.3408591E-2,7.576931E-3,8.864557E-3,1.47168115E-2,1.12159075E-2,1.4369669E-2],"categories":[],"categories_nodes":[],"categories_segments":[],"categories_sizes":[],"default_left":[0,0,0,0,0,0,0,0,0,0,0,0,0,0,0,0,0,0,0,0,0,0,0,0,0,0,0,0,0,0,0,0,0,0,0,0,0,0,0,0,0,0,0,0,0,0,0,0,0,0,0,0,0,0,0,0,0,0,0,0,0,0,0,0,0,0,0,0,0,0,0,0,0,0,0,0,0,0,0,0,0,0,0,0,0,0,0,0,0,0,0],"id":11,"left_children":[1,3,5,7,9,11,13,-1,-1,15,17,19,21,23,25,27,29,31,33,35,37,39,41,43,45,47,49,-1,51,-1,-1,-1,53,55,57,59,61,63,65,67,69,71,73,75,77,79,81,83,85,87,89,-1,-1,-1,-1,-1,-1,-1,-1,-1,-1,-1,-1,-1,-1,-1,-1,-1,-1,-1,-1,-1,-1,-1,-1,-1,-1,-1,-1,-1,-1,-1,-1,-1,-1,-1,-1,-1,-1,-1,-1],"loss_changes":[1.6262362E3,5.685547E0,4.5063702E2,4.5385742E-1,4.690084E0,4.2152734E2,3.6760864E1,0E0,0E0,2.6166282E0,3.4239552E0,1.9997528E1,5.713228E1,4.427414E1,4.5302734E0,1.7765213E0,4.2686367E-1,1.3017447E0,2.1774087E0,5.3815017E0,1.4281326E1,2.4644867E1,2.5682987E1,1.9962545E1,9.154388E0,6.5920258E0,1.1039429E0,0E0,3.85046E-4,0E0,0E0,0E0,1.2911832E0,2.3817796E-1,8.1516194E-1,9.447441E-1,2.5034797E0,3.4883575E0,1.9879776E1,2.6667786E0,1.6809425E1,1.0338301E1,1.6231394E1,2.3663765E1,4.000511E0,3.8427734E0,4.7621326E0,5.1971736E0,4.3990936E0,3.177185E-1,2.2693634E0,0E0,0E0,0E0,0E0,0E0,0E0,0E0,0E0,0E0,0E0,0E0,0E0,0E0,0E0,0E0,0E0,0E0,0E0,0E0,0E0,0E0,0E0,0E0,0E0,0E0,0E0,0E0,0E0,0E0,0E0,0E0,0E0,0E0,0E0,0E0,0E0,0E0,0E0,0E0,0E0],"parents":[2147483647,0,0,1,1,2,2,3,3,4,4,5,5,6,6,9,9,10,10,11,11,12,12,13,13,14,14,15,15,16,16,17,17,18,18,19,19,20,20,21,21,22,22,23,23,24,24,25,25,26,26,28,28,32,32,33,33,34,34,35,35,36,36,37,37,38,38,39,39,40,40,41,41,42,42,43,43,44,44,45,45,46,46,47,47,48,48,49,49,50,50],"right_children":[2,4,6,8,10,12,14,-1,-1,16,18,20,22,24,26,28,30,32,34,36,38,40,42,44,46,48,50,-1,52,-1,-1,-1,54,56,58,60,62,64,66,68,70,72,74,76,78,80,82,84,86,88,90,-1,-1,-1,-1,-1,-1,-1,-1,-1,-1,-1,-1,-1,-1,-1,-1,-1,-1,-1,-1,-1,-1,-1,-1,-1,-1,-1,-1,-1,-1,-1,-1,-1,-1,-1,-1,-1,-1,-1,-1],"split_conditions":[-4.3735933E-1,-5.2810675E-1,4.8727095E-1,-6.30291E-1,3.372506E-1,4.2559364E-1,-1.5208209E-1,-1.4242007E-2,-1.5343788E-2,-9.4787985E-1,6.101544E-1,-2.3102207E0,-4.4950885E-1,9.4090295E-1,-2.2463472E-1,-5.2214074E-1,5.6280824E-3,-3.929369E-1,-2.8103256E-1,7.9685843E-1,-6.7603123E-1,8.856164E-2,8.856164E-2,1.0283067E0,7.468033E-1,-1.3816495E0,3.1566998E-1,-1.8455034E-2,3.8720834E-1,-1.9949874E-2,-3.984422E-3,-1.1699389E-2,5.00978E-1,-2.2850262E-1,-4.6501124E-1,9.709037E-1,9.920387E-1,2.6983824E0,4.4309667E-1,8.88402E-1,1.6364208E-1,8.243813E-1,-1.777629E-1,3.1497136E-1,-8.6017764E-1,-2.1471455E0,8.972627E-1,-2.4718435E-1,7.9098666E-1,5.005553E-1,2.281843E-1,1.7972253E-2,7.757681E-3,1.7359272E-2,-9.3952095E-4,4.772675E-4,1.6484572E-2,5.086794E-4,-2.081757E-2,-2.5381166E-2,-2.864632E-3,1.699576E-2,-1.8786877E-2,1.3912168E-2,-1.9263498E-2,4.7671087E-3,1.2472642E-2,-1.374145E-2,-8.2238065E-3,-9.232105E-3,-1.1982305E-3,-7.932401E-3,9.741752E-3,-1.6673366E-3,8.484018E-3,6.8285214E-3,-2.9505535E-3,5.7636877E-3,1.3032557E-2,-1.0682617E-2,1.3187758E-2,8.689719E-3,-4.820573E-3,-3.033042E-2,1.3846486E-2,1.3408591E-2,7.576931E-3,8.864557E-3,1.47168115E-2,1.12159075E-2,1.4369669E-2],"split_indices":[108,108,108,128,13,125,13,0,0,81,14,104,13,108,88,62,39,16,109,88,71,108,108,102,112,104,12,0,58,0,0,0,49,9,105,76,20,116,106,4,48,17,26,112,110,13,103,64,125,108,13,0,0,0,0,0,0,0,0,0,0,0,0,0,0,0,0,0,0,0,0,0,0,0,0,0,0,0,0,0,0,0,0,0,0,0,0,0,0,0,0],"split_type":[0,0,0,0,0,0,0,0,0,0,0,0,0,0,0,0,0,0,0,0,0,0,0,0,0,0,0,0,0,0,0,0,0,0,0,0,0,0,0,0,0,0,0,0,0,0,0,0,0,0,0,0,0,0,0,0,0,0,0,0,0,0,0,0,0,0,0,0,0,0,0,0,0,0,0,0,0,0,0,0,0,0,0,0,0,0,0,0,0,0,0],"sum_hessian":[4.629E4,1.3866E4,3.2424E4,1.3697E4,1.69E2,1.4482E4,1.7942E4,1.2341E4,1.356E3,7.8E1,9.1E1,5.648E3,8.834E3,8.657E3,9.285E3,1.6E1,6.2E1,5.5E1,3.6E1,7.6E1,5.572E3,5.997E3,2.837E3,3.437E3,5.22E3,1.593E3,7.692E3,5E0,1.1E1,5.6E1,6E0,5E0,5E1,1E1,2.6E1,5.5E1,2.1E1,2.215E3,3.357E3,2.878E3,3.119E3,1.249E3,1.588E3,2.495E3,9.42E2,4.216E3,1.004E3,2.6E1,1.567E3,4.946E3,2.746E3,6E0,5E0,3.8E1,1.2E1,5E0,5E0,5E0,2.1E1,4.9E1,6E0,1.5E1,6E0,2.208E3,7E0,1.685E3,1.672E3,2.628E3,2.5E2,2.19E3,9.29E2,1.161E3,8.8E1,8.73E2,7.15E2,1.368E3,1.127E3,2.71E2,6.71E2,1.6E1,4.2E3,9.35E2,6.9E1,1.6E1,1E1,1.094E3,4.73E2,3.3E1,4.913E3,8.89E2,1.857E3],"tree_param":{"num_deleted":"0","num_feature":"133","num_nodes":"91","size_leaf_vector":"1"}},{"base_weights":[-4.5397726E-4,-1.9339806E-1,1.6456285E-1,-2.727501E-1,-5.0018676E-2,4.64266E-2,2.2972156E-1,-1.353041E-2,-1.4584876E-2,1.4963669E-1,-2.1523136E-1,2.2867168E-1,-5.8164045E-2,1.8530421E-1,2.594169E-1,2.4232656E-1,7.88346E-2,-2.4305147E-1,-8.551701E-2,2.4835873E-1,1.3635199E-1,-1.2876625E-1,3.0423649E-2,1.4025252E-1,2.4769329E-1,2.3440775E-1,2.764128E-1,2.5496027E-1,-1.4201829E-1,-4.8564743E-2,1.6816497E-1,-2.5454512E-1,-1.0290562E-1,-2.1026742E-1,6.2374387E-2,-2.2591151E-1,2.513351E-1,2.6708104E-2,2.2237441E-1,-1.1088875E-2,-1.8721657E-1,1.7939849E-1,-6.0285074E-3,5.9679717E-2,1.8953621E-1,2.5025174E-1,-3.4048036E-1,2.1025592E-1,2.7541342E-1,1.572951E-2,2.768923E-1,1.296357E-2,-2.7074559E-2,1.1395089E-2,-1.6861264E-2,-5.1085856E-3,7.647359E-3,1.3180221E-2,4.6670665E-3,-9.902499E-3,-1.3556394E-2,-1.0598122E-2,1.3001863E-3,-1.2741691E-2,1.6582596E-4,-1.0607864E-3,1.7661756E-2,-2.302671E-2,1.3215952E-2,-1.9708436E-3,1.2696247E-2,-6.9331485E-3,6.1047887E-3,-1.2814275E-2,1.1866192E-2,7.1625635E-3,-6.740992E-3,-1.2410781E-2,-5.763558E-3,2.2763018E-3,1.5580227E-2,4.9213422E-3,-4.510002E-3,-2.0981234E-4,9.665655E-3,-1.6651317E-2,9.838072E-3,9.724146E-3,1.3283263E-2,-6.3153035E-3,-2.3056628E-2,1.2193541E-2,7.4217073E-3,4.7690608E-3,1.38516845E-2,-1.5039858E-2,1.4953837E-2,9.190973E-3,1.3908729E-2],"categories":[],"categories_nodes":[],"categories_segments":[],"categories_sizes":[],"default_left":[0,0,0,0,0,0,0,0,0,0,0,0,0,0,0,0,0,0,0,0,0,0,0,0,0,0,0,0,0,0,0,0,0,0,0,0,0,0,0,0,0,0,0,0,0,0,0,0,0,0,0,0,0,0,0,0,0,0,0,0,0,0,0,0,0,0,0,0,0,0,0,0,0,0,0,0,0,0,0,0,0,0,0,0,0,0,0,0,0,0,0,0,0,0,0,0,0,0,0],"id":12,"left_children":[1,3,5,7,9,11,13,-1,-1,15,17,19,21,23,25,27,29,31,33,35,37,39,41,43,45,47,49,51,53,55,57,59,61,63,65,67,69,71,73,75,77,79,81,83,85,87,89,91,93,95,97,-1,-1,-1,-1,-1,-1,-1,-1,-1,-1,-1,-1,-1,-1,-1,-1,-1,-1,-1,-1,-1,-1,-1,-1,-1,-1,-1,-1,-1,-1,-1,-1,-1,-1,-1,-1,-1,-1,-1,-1,-1,-1,-1,-1,-1,-1,-1,-1],"loss_changes":[1.4795941E3,2.4369324E2,1.9277124E2,4.2443848E-1,2.5185081E2,1.6978879E2,2.119989E1,0E0,0E0,2.2635826E1,1.5023392E1,5.830902E0,3.540789E1,1.812033E1,3.994873E0,7.3116226E0,2.2348923E1,5.4775543E0,1.3680546E1,3.8353882E0,5.383024E0,2.1644676E1,1.3648859E1,1.490239E1,4.157242E0,3.7777252E0,6.850586E-1,5.087471E0,3.5539138E0,8.749726E0,8.180561E0,2.8757324E0,3.7214787E0,3.852499E0,8.28283E0,2.0966759E0,2.0336761E0,4.021961E0,2.3559046E0,2.0012669E1,9.168655E0,8.693281E0,1.7741858E1,1.2226147E1,8.860451E0,2.2240753E0,1.930995E-1,5.065857E0,3.5901642E-1,1.1660328E0,5.8758545E-1,0E0,0E0,0E0,0E0,0E0,0E0,0E0,0E0,0E0,0E0,0E0,0E0,0E0,0E0,0E0,0E0,0E0,0E0,0E0,0E0,0E0,0E0,0E0,0E0,0E0,0E0,0E0,0E0,0E0,0E0,0E0,0E0,0E0,0E0,0E0,0E0,0E0,0E0,0E0,0E0,0E0,0E0,0E0,0E0,0E0,0E0,0E0,0E0],"parents":[2147483647,0,0,1,1,2,2,3,3,4,4,5,5,6,6,9,9,10,10,11,11,12,12,13,13,14,14,15,15,16,16,17,17,18,18,19,19,20,20,21,21,22,22,23,23,24,24,25,25,26,26,27,27,28,28,29,29,30,30,31,31,32,32,33,33,34,34,35,35,36,36,37,37,38,38,39,39,40,40,41,41,42,42,43,43,44,44,45,45,46,46,47,47,48,48,49,49,50,50],"right_children":[2,4,6,8,10,12,14,-1,-1,16,18,20,22,24,26,28,30,32,34,36,38,40,42,44,46,48,50,52,54,56,58,60,62,64,66,68,70,72,74,76,78,80,82,84,86,88,90,92,94,96,98,-1,-1,-1,-1,-1,-1,-1,-1,-1,-1,-1,-1,-1,-1,-1,-1,-1,-1,-1,-1,-1,-1,-1,-1,-1,-1,-1,-1,-1,-1,-1,-1,-1,-1,-1,-1,-1,-1,-1,-1,-1,-1,-1,-1,-1,-1,-1,-1],"split_conditions":[8.1286274E-2,-5.2810675E-1,6.267276E-1,-6.30291E-1,-6.2007797E-1,-5.9870183E-1,-1.9148381E-1,-1.353041E-2,-1.4584876E-2,-7.072102E-1,5.8043176E-1,-6.178391E-1,-6.938343E-1,4.1686896E-2,5.14923E-1,1.3668875E0,2.5236568E-1,7.625538E-1,-2.142735E-1,-2.005325E0,-1.0348704E-1,-8.89927E-1,-8.2966447E-1,9.639988E-1,2.6599858E0,2.7952707E-1,-1.2408528E0,2.9930997E0,4.4228718E-1,9.8623854E-1,-4.3810892E-1,-4.4111052E-1,4.747569E-1,6.512861E-1,5.1524967E-1,-1.1356052E0,-1.618719E0,-4.0633533E-2,-1.5343784E0,2.1804184E-1,1.3087307E-1,-3.596262E-1,-4.541358E-2,2.9125562E-1,-1.9439144E0,8.3193517E-1,7.6276176E-2,4.742636E-1,-1.1239151E0,3.9366254E-1,-1.2351186E0,1.296357E-2,-2.7074559E-2,1.1395089E-2,-1.6861264E-2,-5.1085856E-3,7.647359E-3,1.3180221E-2,4.6670665E-3,-9.902499E-3,-1.3556394E-2,-1.0598122E-2,1.3001863E-3,-1.2741691E-2,1.6582596E-4,-1.0607864E-3,1.7661756E-2,-2.302671E-2,1.3215952E-2,-1.9708436E-3,1.2696247E-2,-6.9331485E-3,6.1047887E-3,-1.2814275E-2,1.1866192E-2,7.1625635E-3,-6.740992E-3,-1.2410781E-2,-5.763558E-3,2.2763018E-3,1.5580227E-2,4.9213422E-3,-4.510002E-3,-2.0981234E-4,9.665655E-3,-1.6651317E-2,9.838072E-3,9.724146E-3,1.3283263E-2,-6.3153035E-3,-2.3056628E-2,1.2193541E-2,7.4217073E-3,4.7690608E-3,1.38516845E-2,-1.5039858E-2,1.4953837E-2,9.190973E-3,1.3908729E-2],"split_indices":[108,108,108,128,128,128,88,0,0,71,132,128,13,129,71,3,106,54,13,84,13,103,103,108,11,13,13,54,48,2,105,7,10,104,17,1,130,31,55,81,3,53,112,132,13,108,96,111,16,3,20,0,0,0,0,0,0,0,0,0,0,0,0,0,0,0,0,0,0,0,0,0,0,0,0,0,0,0,0,0,0,0,0,0,0,0,0,0,0,0,0,0,0,0,0,0,0,0,0],"split_type":[0,0,0,0,0,0,0,0,0,0,0,0,0,0,0,0,0,0,0,0,0,0,0,0,0,0,0,0,0,0,0,0,0,0,0,0,0,0,0,0,0,0,0,0,0,0,0,0,0,0,0,0,0,0,0,0,0,0,0,0,0,0,0,0,0,0,0,0,0,0,0,0,0,0,0,0,0,0,0,0,0,0,0,0,0,0,0,0,0,0,0,0,0,0,0,0,0,0,0],"sum_hessian":[4.6469E4,2.1422E4,2.5047E4,1.3789E4,7.633E3,8.905E3,1.6142E4,1.2407E4,1.382E3,3.456E3,4.177E3,3.247E3,5.658E3,6.472E3,9.67E3,1.495E3,1.961E3,3.438E3,7.39E2,2.674E3,5.73E2,3.149E3,2.509E3,3.761E3,2.711E3,3.921E3,5.749E3,1.448E3,4.7E1,8.08E2,1.153E3,3.176E3,2.62E2,4.01E2,3.38E2,1.6E1,2.658E3,2.53E2,3.2E2,1.046E3,2.103E3,4.93E2,2.016E3,1.429E3,2.332E3,2.7E3,1.1E1,2.473E3,1.448E3,1.1E1,5.738E3,1.441E3,7E0,1.6E1,3.1E1,6.39E2,1.69E2,5.05E2,6.48E2,7.25E2,2.451E3,1.42E2,1.2E2,3.32E2,6.9E1,2.63E2,7.5E1,1.1E1,5E0,2.3E1,2.635E3,9.2E1,1.61E2,9E0,3.11E2,4.65E2,5.81E2,1.136E3,9.67E2,2.46E2,2.47E2,8.99E2,1.117E3,9.67E2,4.62E2,3.1E1,2.301E3,5.89E2,2.111E3,5E0,6E0,1.599E3,8.74E2,1.4E1,1.434E3,5E0,6E0,8.1E1,5.657E3],"tree_param":{"num_deleted":"0","num_feature":"133","num_nodes":"99","size_leaf_vector":"1"}},{"base_weights":[6.95583E-4,-1.7543514E-1,1.6315654E-1,-2.5909892E-1,-4.0697932E-2,5.151454E-2,2.1821761E-1,-1.2852907E-2,-2.7704963E-1,1.5296257E-1,-2.0226125E-1,2.0325726E-1,-4.8257887E-2,1.8018138E-1,2.5022548E-1,-1.3884741E-2,-7.537979E-3,2.3312424E-1,9.194374E-2,-2.2663215E-1,-7.787059E-2,2.3691286E-1,1.17612E-1,-7.548664E-2,1.66703E-1,2.9922761E-2,1.9479692E-1,2.0119943E-1,2.55442E-1,2.549042E-1,4.7035422E-2,-4.403346E-3,1.8613587E-1,-2.3333517E-1,-3.9552294E-2,5.48005E-2,-1.6801894E-1,-8.295248E-2,2.4303575E-1,1.8913075E-2,1.9237354E-1,-1.10157534E-1,5.6375716E-2,2.9709634E-1,6.340161E-2,1.5657887E-1,-8.795932E-2,2.1375638E-1,1.0202905E-1,-1.1234959E-2,2.2971034E-1,2.5898623E-1,2.1280544E-1,-2.5300025E-3,1.3073357E-2,1.3996946E-2,-2.0510608E-3,-1.7578429E-2,1.1871716E-3,1.1771806E-2,3.399698E-3,-1.2162568E-2,-6.2849508E-3,3.6730089E-3,-1.3597165E-2,1.7477399E-2,-1.3140659E-3,7.0627774E-3,-9.839038E-3,-1.827182E-2,1.2758793E-2,-7.925647E-3,1.2284824E-2,-1.8604564E-3,9.178181E-3,-1.248019E-3,1.1340887E-2,-7.986268E-3,-7.589939E-5,-6.0444686E-4,1.323844E-2,-1.7280512E-2,1.578194E-2,8.526753E-3,-4.2811097E-3,-2.27565E-2,8.812793E-3,-8.2267085E-3,6.7732804E-3,6.9637904E-3,1.1397329E-2,-9.115684E-3,6.284997E-3,8.625487E-3,-7.892692E-3,1.5149132E-3,1.2189401E-2,1.2992138E-2,6.5112174E-3,-1.3614477E-3,1.1973243E-2],"categories":[],"categories_nodes":[],"categories_segments":[],"categories_sizes":[],"default_left":[0,0,0,0,0,0,0,0,0,0,0,0,0,0,0,0,0,0,0,0,0,0,0,0,0,0,0,0,0,0,0,0,0,0,0,0,0,0,0,0,0,0,0,0,0,0,0,0,0,0,0,0,0,0,0,0,0,0,0,0,0,0,0,0,0,0,0,0,0,0,0,0,0,0,0,0,0,0,0,0,0,0,0,0,0,0,0,0,0,0,0,0,0,0,0,0,0,0,0,0,0],"id":13,"left_children":[1,3,5,7,9,11,13,-1,15,17,19,21,23,25,27,-1,-1,29,31,33,35,37,39,41,43,45,47,49,51,53,55,57,59,61,63,65,67,69,71,73,75,77,79,81,83,85,87,89,91,93,95,97,99,-1,-1,-1,-1,-1,-1,-1,-1,-1,-1,-1,-1,-1,-1,-1,-1,-1,-1,-1,-1,-1,-1,-1,-1,-1,-1,-1,-1,-1,-1,-1,-1,-1,-1,-1,-1,-1,-1,-1,-1,-1,-1,-1,-1,-1,-1,-1,-1],"loss_changes":[1.3256737E3,2.5053864E2,1.4810754E2,3.7774658E-1,2.6651944E2,1.2056791E2,1.9560486E1,0E0,2.7893066E-2,1.8895233E1,1.4030258E1,9.042328E0,2.8121832E1,1.6179E1,2.1432495E0,0E0,0E0,6.7385025E0,2.0002445E1,4.8315125E0,9.14607E0,4.474121E0,6.5719557E0,1.9510256E1,7.218816E0,9.815032E0,1.17747345E1,5.166565E0,1.0933228E0,3.0357895E0,3.6654143E0,1.0682382E1,6.4420586E0,3.9318542E0,3.6116045E0,7.4261994E0,4.0807114E0,4.211457E0,2.4238129E0,3.597559E0,3.82868E0,1.8174252E1,1.2698062E1,2.942421E0,4.8606195E0,3.867929E0,5.842162E0,5.8311157E0,7.7171135E0,2.7467499E0,2.0678444E0,7.3202515E-1,3.9632378E0,0E0,0E0,0E0,0E0,0E0,0E0,0E0,0E0,0E0,0E0,0E0,0E0,0E0,0E0,0E0,0E0,0E0,0E0,0E0,0E0,0E0,0E0,0E0,0E0,0E0,0E0,0E0,0E0,0E0,0E0,0E0,0E0,0E0,0E0,0E0,0E0,0E0,0E0,0E0,0E0,0E0,0E0,0E0,0E0,0E0,0E0,0E0,0E0],"parents":[2147483647,0,0,1,1,2,2,3,3,4,4,5,5,6,6,8,8,9,9,10,10,11,11,12,12,13,13,14,14,17,17,18,18,19,19,20,20,21,21,22,22,23,23,24,24,25,25,26,26,27,27,28,28,29,29,30,30,31,31,32,32,33,33,34,34,35,35,36,36,37,37,38,38,39,39,40,40,41,41,42,42,43,43,44,44,45,45,46,46,47,47,48,48,49,49,50,50,51,51,52,52],"right_children":[2,4,6,8,10,12,14,-1,16,18,20,22,24,26,28,-1,-1,30,32,34,36,38,40,42,44,46,48,50,52,54,56,58,60,62,64,66,68,70,72,74,76,78,80,82,84,86,88,90,92,94,96,98,100,-1,-1,-1,-1,-1,-1,-1,-1,-1,-1,-1,-1,-1,-1,-1,-1,-1,-1,-1,-1,-1,-1,-1,-1,-1,-1,-1,-1,-1,-1,-1,-1,-1,-1,-1,-1,-1,-1,-1,-1,-1,-1,-1,-1,-1,-1,-1,-1],"split_conditions":[1.225684E-1,-5.2810675E-1,6.267276E-1,-6.30291E-1,-6.18228E-1,-5.7256186E-1,3.9253393E-3,-1.2852907E-2,2.6047013E0,-7.072102E-1,5.928204E-1,3.9198205E-1,7.0442253E-1,-1.0504935E0,7.339508E-1,-1.3884741E-2,-7.537979E-3,5.961602E-1,4.3494684E-1,8.9996094E-1,-2.2844305E-2,-1.6376626E0,-1.6320166E-1,8.3792555E-1,-4.078161E-1,1.5622775E-1,9.3686694E-1,-8.89843E-1,8.7210774E-1,-1.396021E0,-7.2656255E-3,-1.5024182E0,-3.5899815E-1,1.0442836E0,3.5477486E-1,5.324422E-2,5.74183E-1,-1.2501982E0,-3.5745752E0,4.1081008E-1,-9.0450865E-1,4.4608197E-1,-2.712326E-1,-4.8353496E-1,1.598706E-1,-1.7514187E0,5.4237074E-1,8.015851E-1,-1.3675731E0,-3.5576716E-1,-1.1727359E0,2.3501277E0,-9.353164E-1,-2.5300025E-3,1.3073357E-2,1.3996946E-2,-2.0510608E-3,-1.7578429E-2,1.1871716E-3,1.1771806E-2,3.399698E-3,-1.2162568E-2,-6.2849508E-3,3.6730089E-3,-1.3597165E-2,1.7477399E-2,-1.3140659E-3,7.0627774E-3,-9.839038E-3,-1.827182E-2,1.2758793E-2,-7.925647E-3,1.2284824E-2,-1.8604564E-3,9.178181E-3,-1.248019E-3,1.1340887E-2,-7.986268E-3,-7.589939E-5,-6.0444686E-4,1.323844E-2,-1.7280512E-2,1.578194E-2,8.526753E-3,-4.2811097E-3,-2.27565E-2,8.812793E-3,-8.2267085E-3,6.7732804E-3,6.9637904E-3,1.1397329E-2,-9.115684E-3,6.284997E-3,8.625487E-3,-7.892692E-3,1.5149132E-3,1.2189401E-2,1.2992138E-2,6.5112174E-3,-1.3614477E-3,1.1973243E-2],"split_indices":[108,108,108,128,128,128,129,0,110,71,132,125,55,17,108,0,0,3,106,110,59,84,54,66,84,79,112,20,112,132,124,104,105,3,21,84,125,65,119,17,10,108,110,33,112,19,49,108,110,105,88,11,18,0,0,0,0,0,0,0,0,0,0,0,0,0,0,0,0,0,0,0,0,0,0,0,0,0,0,0,0,0,0,0,0,0,0,0,0,0,0,0,0,0,0,0,0,0,0,0,0],"split_type":[0,0,0,0,0,0,0,0,0,0,0,0,0,0,0,0,0,0,0,0,0,0,0,0,0,0,0,0,0,0,0,0,0,0,0,0,0,0,0,0,0,0,0,0,0,0,0,0,0,0,0,0,0,0,0,0,0,0,0,0,0,0,0,0,0,0,0,0,0,0,0,0,0,0,0,0,0,0,0,0,0,0,0,0,0,0,0,0,0,0,0,0,0,0,0,0,0,0,0,0,0],"sum_hessian":[4.6327E4,2.2228E4,2.4099E4,1.3712E4,8.516E3,7.961E3,1.6138E4,1.2331E4,1.381E3,3.873E3,4.643E3,3.158E3,4.803E3,7.379E3,8.759E3,1.372E3,9E0,1.672E3,2.201E3,3.881E3,7.62E2,2.265E3,8.93E2,4.264E3,5.39E2,6.55E2,6.724E3,8.48E2,7.911E3,1.496E3,1.76E2,1.088E3,1.113E3,3.746E3,1.35E2,3.08E2,4.54E2,4.2E1,2.223E3,3.86E2,5.07E2,3.377E3,8.87E2,2.37E2,3.02E2,3.16E2,3.39E2,5.581E3,1.143E3,1E2,7.48E2,7.297E3,6.14E2,3.1E1,1.465E3,4.8E1,1.28E2,8.1E1,1.007E3,7.84E2,3.29E2,3.428E3,3.18E2,9.1E1,4.4E1,6.6E1,2.42E2,3.8E1,4.16E2,2.3E1,1.9E1,1.4E1,2.209E3,2.88E2,9.8E1,6.9E1,4.38E2,2.318E3,1.059E3,6.68E2,2.19E2,6E0,2.31E2,1.76E2,1.26E2,9E0,3.07E2,2.53E2,8.6E1,8.96E2,4.685E3,8.7E1,1.056E3,4.4E1,5.6E1,5E1,6.98E2,7.247E3,5E1,6.1E1,5.53E2],"tree_param":{"num_deleted":"0","num_feature":"133","num_nodes":"101","size_leaf_vector":"1"}},{"base_weights":[-6.142646E-5,-2.4420284E-1,1.05226085E-1,-2.461507E-1,-9.82202E-2,-7.998363E-3,1.9669035E-1,-1.22106355E-2,-1.3139543E-2,-1.5458941E-1,2.2382604E-1,1.6769336E-1,-1.3272364E-1,1.4048387E-1,2.2777243E-1,1.2579513E-1,-2.0092459E-1,-1.0607414E-2,1.7845836E-2,1.7552714E-1,-1.8582232E-1,-2.0211092E-1,-7.102348E-2,4.6040956E-2,1.8054609E-1,1.9027205E-1,2.4602285E-1,2.9123342E-1,-1.8740945E-2,-3.3672848E-1,-1.0842294E-1,1.2431203E-1,2.2249159E-1,1.923902E-1,-2.606846E-1,-2.1100473E-1,7.6716065E-2,-1.0729196E-1,1.0227377E-1,-2.0599343E-2,1.4324412E-1,-7.149369E-2,1.8772882E-1,1.0988643E-1,2.1145628E-1,-2.0370279E-1,2.4704628E-1,1.6829493E-2,6.3877776E-3,-1.8987082E-2,3.0584545E-3,-1.4616223E-2,2.0221302E-3,1.0191051E-2,3.3705742E-3,-1.4023155E-2,1.1303614E-2,-7.265688E-3,1.5307255E-2,-1.7062942E-2,9.714769E-3,-1.177766E-2,-7.472638E-3,-7.0531624E-3,1.2408051E-2,-7.7163675E-3,-4.5016757E-5,-1.0349975E-3,1.0275996E-2,-3.1026762E-3,7.9754125E-3,7.6764575E-3,-1.7496305E-2,1.300146E-2,-6.715705E-3,9.977768E-3,3.5211144E-3,9.742861E-3,8.156729E-4,1.0873478E-2,1.2022633E-3,-2.0087767E-2,1.2134741E-2,1.2374971E-2,1.0014885E-3],"categories":[],"categories_nodes":[],"categories_segments":[],"categories_sizes":[],"default_left":[0,0,0,0,0,0,0,0,0,0,0,0,0,0,0,0,0,0,0,0,0,0,0,0,0,0,0,0,0,0,0,0,0,0,0,0,0,0,0,0,0,0,0,0,0,0,0,0,0,0,0,0,0,0,0,0,0,0,0,0,0,0,0,0,0,0,0,0,0,0,0,0,0,0,0,0,0,0,0,0,0,0,0,0,0],"id":14,"left_children":[1,3,5,7,9,11,13,-1,-1,15,17,19,21,23,25,27,29,-1,-1,31,33,35,37,39,41,43,45,47,-1,49,51,53,55,57,59,61,63,65,67,69,71,73,75,77,79,81,83,-1,-1,-1,-1,-1,-1,-1,-1,-1,-1,-1,-1,-1,-1,-1,-1,-1,-1,-1,-1,-1,-1,-1,-1,-1,-1,-1,-1,-1,-1,-1,-1,-1,-1,-1,-1,-1,-1],"loss_changes":[1.1963779E3,3.9291382E0,3.367766E2,3.314209E-1,3.422381E0,3.1843948E2,3.1356445E1,0E0,0E0,2.1114554E0,1.7148708E0,1.6739182E1,3.63443E1,2.4218079E1,7.834839E0,2.005678E0,1.6525435E0,0E0,0E0,1.4136093E1,3.766099E0,9.946487E0,2.8301285E1,1.2393999E1,8.1697235E0,6.410568E0,3.6373901E0,4.403019E-2,0E0,9.964013E-1,2.3366446E0,1.2748783E1,5.599365E0,9.057109E-1,4.1135635E0,5.7829437E0,4.675524E0,1.8614864E1,9.91336E0,8.466837E0,3.9803104E0,2.6256547E0,6.0285034E0,6.2967234E0,3.3548584E0,1.7047932E0,7.6724243E-1,0E0,0E0,0E0,0E0,0E0,0E0,0E0,0E0,0E0,0E0,0E0,0E0,0E0,0E0,0E0,0E0,0E0,0E0,0E0,0E0,0E0,0E0,0E0,0E0,0E0,0E0,0E0,0E0,0E0,0E0,0E0,0E0,0E0,0E0,0E0,0E0,0E0,0E0],"parents":[2147483647,0,0,1,1,2,2,3,3,4,4,5,5,6,6,9,9,10,10,11,11,12,12,13,13,14,14,15,15,16,16,19,19,20,20,21,21,22,22,23,23,24,24,25,25,26,26,27,27,29,29,30,30,31,31,32,32,33,33,34,34,35,35,36,36,37,37,38,38,39,39,40,40,41,41,42,42,43,43,44,44,45,45,46,46],"right_children":[2,4,6,8,10,12,14,-1,-1,16,18,20,22,24,26,28,30,-1,-1,32,34,36,38,40,42,44,46,48,-1,50,52,54,56,58,60,62,64,66,68,70,72,74,76,78,80,82,84,-1,-1,-1,-1,-1,-1,-1,-1,-1,-1,-1,-1,-1,-1,-1,-1,-1,-1,-1,-1,-1,-1,-1,-1,-1,-1,-1,-1,-1,-1,-1,-1,-1,-1,-1,-1,-1,-1],"split_conditions":[-4.3735933E-1,-5.2810675E-1,4.8727095E-1,-6.30291E-1,1.1934131E0,-6.116089E-1,-2.1441492E-1,-1.22106355E-2,-1.3139543E-2,-1.4506519E0,-5.7093275E-1,1.9057997E0,8.856164E-2,8.015851E-1,-5.08894E-1,1.9436344E0,-1.7395295E-2,-1.0607414E-2,1.7845836E-2,3.476173E-1,-1.2095512E0,1.3856211E0,5.456036E-1,1.63926E-1,-1.2948929E0,7.650167E-1,-1.9214022E0,9.669078E-1,-1.8740945E-2,1.2591696E0,-4.411027E-1,-4.160971E-1,-1.7704437E0,-1.0237961E0,7.903092E-1,1.3605201E-1,-2.638168E-1,1.6364208E-1,-1.2032142E-1,3.6849564E-1,1.78743E0,-2.6915085E-1,1.1859529E0,-4.3936086E-1,1.3692391E0,4.152211E-1,2.455653E0,1.6829493E-2,6.3877776E-3,-1.8987082E-2,3.0584545E-3,-1.4616223E-2,2.0221302E-3,1.0191051E-2,3.3705742E-3,-1.4023155E-2,1.1303614E-2,-7.265688E-3,1.5307255E-2,-1.7062942E-2,9.714769E-3,-1.177766E-2,-7.472638E-3,-7.0531624E-3,1.2408051E-2,-7.7163675E-3,-4.5016757E-5,-1.0349975E-3,1.0275996E-2,-3.1026762E-3,7.9754125E-3,7.6764575E-3,-1.7496305E-2,1.300146E-2,-6.715705E-3,9.977768E-3,3.5211144E-3,9.742861E-3,8.156729E-4,1.0873478E-2,1.2022633E-3,-2.0087767E-2,1.2134741E-2,1.2374971E-2,1.0014885E-3],"split_indices":[108,108,108,128,132,128,129,0,0,69,23,96,108,108,91,80,116,0,0,48,69,90,132,132,20,108,15,19,0,74,87,117,130,85,81,54,29,48,54,54,113,79,113,128,113,129,113,0,0,0,0,0,0,0,0,0,0,0,0,0,0,0,0,0,0,0,0,0,0,0,0,0,0,0,0,0,0,0,0,0,0,0,0,0,0],"split_type":[0,0,0,0,0,0,0,0,0,0,0,0,0,0,0,0,0,0,0,0,0,0,0,0,0,0,0,0,0,0,0,0,0,0,0,0,0,0,0,0,0,0,0,0,0,0,0,0,0,0,0,0,0,0,0,0,0,0,0,0,0,0,0,0,0,0,0,0,0,0,0,0,0,0,0,0,0,0,0,0,0,0,0,0,0],"sum_hessian":[4.654E4,1.4023E4,3.2517E4,1.3837E4,1.86E2,1.453E4,1.7987E4,1.2413E4,1.424E3,1.59E2,2.7E1,6.032E3,8.498E3,6.408E3,1.1579E4,2.2E1,1.37E2,6E0,2.1E1,5.902E3,1.3E2,3.998E3,4.5E3,1.91E3,4.498E3,3.796E3,7.783E3,1.7E1,5E0,5.4E1,8.3E1,2.826E3,3.076E3,2.1E1,1.09E2,3.875E3,1.23E2,3.722E3,7.78E2,1.133E3,7.77E2,1.24E2,4.374E3,7.94E2,3.002E3,1.7E1,7.766E3,1.2E1,5E0,4.9E1,5E0,3.7E1,4.6E1,1.177E3,1.649E3,2.1E1,3.055E3,5E0,1.6E1,9.3E1,1.6E1,2.767E3,1.108E3,5.4E1,6.9E1,2.58E3,1.142E3,3.55E2,4.23E2,9.22E2,2.11E2,7.62E2,1.5E1,1.9E1,1.05E2,3.972E3,4.02E2,4.15E2,3.79E2,2.908E3,9.4E1,1.2E1,5E0,7.75E3,1.6E1],"tree_param":{"num_deleted":"0","num_feature":"133","num_nodes":"85","size_leaf_vector":"1"}},{"base_weights":[1.5541892E-3,-2.3199496E-1,1.0140581E-1,-2.3376054E-1,-9.382316E-2,-9.902943E-3,1.8506095E-1,-1.1599681E-2,-2.4944907E-1,-2.7533236E-1,1.7316017E-2,1.6569895E-1,-1.2506E-1,1.3072063E-1,2.1586794E-1,-2.5056237E-1,-1.4009176E-1,-3.7282994E-1,-0E0,-1.7775377E-2,7.1420245E-2,-2.4002478E-1,1.714118E-1,-1.7608145E-1,-1.9257655E-2,4.21692E-2,1.7449272E-1,1.3679205E-1,2.225746E-1,-1.255959E-2,-1.508009E-1,4.2596655E-3,-1.2469666E-2,-1.272506E-2,-2.0449972E-2,2.16642E-1,-1.6755039E-2,1.4134085E-1,-2.0333715E-1,-4.1267672E-1,4.0885806E-2,2.0551151E-1,1.1779966E-1,-1.9976549E-1,-9.878691E-2,-5.968825E-2,1.563089E-1,-7.755985E-2,9.432288E-2,-2.7421653E-1,1.7880213E-1,1.6886951E-2,2.2225483E-1,2.0183663E-1,2.3510592E-1,-1.533396E-3,-1.0897166E-2,1.6499354E-2,1.5816223E-3,-1.7778939E-2,9.053648E-3,6.666105E-3,-2.0128153E-2,-2.2871194E-2,-3.2713407E-4,9.778921E-3,-2.4052197E-2,1.1681956E-2,8.304967E-3,7.0642843E-3,-6.29109E-3,-1.0284491E-2,7.2196648E-3,-8.757545E-3,-1.2133507E-3,1.442851E-2,-4.3461635E-3,1.8621127E-3,1.365034E-2,-1.0105496E-2,4.0547052E-4,9.532115E-3,2.4424891E-3,1.2077596E-2,-2.1039456E-2,7.615781E-3,1.1529378E-2,1.0411585E-2,-1.8889658E-3,-1.953217E-2,1.1443145E-2,6.180345E-3,1.1299839E-2,5.995644E-3,1.1802325E-2],"categories":[],"categories_nodes":[],"categories_segments":[],"categories_sizes":[],"default_left":[0,0,0,0,0,0,0,0,0,0,0,0,0,0,0,0,0,0,0,0,0,0,0,0,0,0,0,0,0,0,0,0,0,0,0,0,0,0,0,0,0,0,0,0,0,0,0,0,0,0,0,0,0,0,0,0,0,0,0,0,0,0,0,0,0,0,0,0,0,0,0,0,0,0,0,0,0,0,0,0,0,0,0,0,0,0,0,0,0,0,0,0,0,0,0],"id":15,"left_children":[1,3,5,7,9,11,13,-1,15,17,19,21,23,25,27,29,31,33,35,-1,37,39,41,43,45,47,49,51,53,-1,55,-1,-1,-1,-1,57,-1,59,61,63,65,67,69,71,73,75,77,79,81,83,85,87,89,91,93,-1,-1,-1,-1,-1,-1,-1,-1,-1,-1,-1,-1,-1,-1,-1,-1,-1,-1,-1,-1,-1,-1,-1,-1,-1,-1,-1,-1,-1,-1,-1,-1,-1,-1,-1,-1,-1,-1,-1,-1],"loss_changes":[1.0838196E3,3.3408813E0,3.0317545E2,2.7496338E-1,3.6213243E0,2.8251517E2,3.1054565E1,0E0,9.287262E-2,1.7951713E0,2.2359996E0,1.2858887E1,4.5526978E1,2.6053131E1,6.2234497E0,7.05719E-3,4.5627478E-1,4.355383E-2,1.4615453E0,0E0,1.9052379E0,3.7885332E0,9.919708E0,1.0370453E1,1.9498589E1,1.3921318E1,8.744888E0,9.512684E0,2.7492676E0,0E0,6.524724E-2,0E0,0E0,0E0,0E0,2.0503879E-1,0E0,1.6066849E0,1.4220196E0,8.2293034E-1,2.4876952E0,3.6160889E0,1.2177938E1,8.915298E0,7.589877E0,2.1194012E1,7.100748E0,7.234035E0,6.7687883E0,3.37026E0,6.043991E0,4.0938916E0,2.2724113E0,7.7373047E0,6.732788E-1,0E0,0E0,0E0,0E0,0E0,0E0,0E0,0E0,0E0,0E0,0E0,0E0,0E0,0E0,0E0,0E0,0E0,0E0,0E0,0E0,0E0,0E0,0E0,0E0,0E0,0E0,0E0,0E0,0E0,0E0,0E0,0E0,0E0,0E0,0E0,0E0,0E0,0E0,0E0,0E0],"parents":[2147483647,0,0,1,1,2,2,3,3,4,4,5,5,6,6,8,8,9,9,10,10,11,11,12,12,13,13,14,14,15,15,16,16,17,17,18,18,20,20,21,21,22,22,23,23,24,24,25,25,26,26,27,27,28,28,30,30,35,35,37,37,38,38,39,39,40,40,41,41,42,42,43,43,44,44,45,45,46,46,47,47,48,48,49,49,50,50,51,51,52,52,53,53,54,54],"right_children":[2,4,6,8,10,12,14,-1,16,18,20,22,24,26,28,30,32,34,36,-1,38,40,42,44,46,48,50,52,54,-1,56,-1,-1,-1,-1,58,-1,60,62,64,66,68,70,72,74,76,78,80,82,84,86,88,90,92,94,-1,-1,-1,-1,-1,-1,-1,-1,-1,-1,-1,-1,-1,-1,-1,-1,-1,-1,-1,-1,-1,-1,-1,-1,-1,-1,-1,-1,-1,-1,-1,-1,-1,-1,-1,-1,-1,-1,-1,-1],"split_conditions":[-4.3735933E-1,-5.2810675E-1,4.4608197E-1,-6.30291E-1,-6.505185E-2,-6.18228E-1,-2.1441492E-1,-1.1599681E-2,5.90306E-1,1.0762863E0,-8.2452077E-1,-2.3102207E0,-4.4950885E-1,8.015851E-1,-1.3714879E0,2.6047013E0,1.0996916E-2,-8.2452077E-1,-3.2507038E-1,-1.7775377E-2,5.8926326E-1,1.3438724E0,-1.4394954E-1,7.3661095E-1,5.789763E-1,-5.861272E-1,-1.9439144E0,1.0526077E0,-1.3990179E-1,-1.255959E-2,9.8329894E-2,4.2596655E-3,-1.2469666E-2,-1.272506E-2,-2.0449972E-2,-2.8503332E-1,-1.6755039E-2,-1.604567E0,-2.2517292E-1,8.398427E-1,2.0500941E0,-4.0280008E-1,1.2809241E0,1.3116939E0,8.1286274E-2,-1.1940101E0,2.054957E-1,-6.9749445E-1,-5.591465E-1,-1.01495884E-1,5.3576905E-1,-8.198358E-1,-2.0843744E0,-2.4327E-1,-1.2351186E0,-1.533396E-3,-1.0897166E-2,1.6499354E-2,1.5816223E-3,-1.7778939E-2,9.053648E-3,6.666105E-3,-2.0128153E-2,-2.2871194E-2,-3.2713407E-4,9.778921E-3,-2.4052197E-2,1.1681956E-2,8.304967E-3,7.0642843E-3,-6.29109E-3,-1.0284491E-2,7.2196648E-3,-8.757545E-3,-1.2133507E-3,1.442851E-2,-4.3461635E-3,1.8621127E-3,1.365034E-2,-1.0105496E-2,4.0547052E-4,9.532115E-3,2.4424891E-3,1.2077596E-2,-2.1039456E-2,7.615781E-3,1.1529378E-2,1.0411585E-2,-1.8889658E-3,-1.953217E-2,1.1443145E-2,6.180345E-3,1.1299839E-2,5.995644E-3,1.1802325E-2],"split_indices":[108,108,108,128,132,128,129,0,126,56,127,104,13,108,88,110,49,127,1,0,27,62,9,66,102,132,13,108,13,0,116,0,0,0,0,85,0,6,115,4,114,105,0,18,108,86,104,90,128,27,132,52,53,26,20,0,0,0,0,0,0,0,0,0,0,0,0,0,0,0,0,0,0,0,0,0,0,0,0,0,0,0,0,0,0,0,0,0,0,0,0,0,0,0,0],"split_type":[0,0,0,0,0,0,0,0,0,0,0,0,0,0,0,0,0,0,0,0,0,0,0,0,0,0,0,0,0,0,0,0,0,0,0,0,0,0,0,0,0,0,0,0,0,0,0,0,0,0,0,0,0,0,0,0,0,0,0,0,0,0,0,0,0,0,0,0,0,0,0,0,0,0,0,0,0,0,0,0,0,0,0,0,0,0,0,0,0,0,0,0,0,0,0],"sum_hessian":[4.6474E4,1.3918E4,3.2556E4,1.3741E4,1.77E2,1.3969E4,1.8587E4,1.237E4,1.371E3,6.7E1,1.1E2,5.532E3,8.437E3,6.728E3,1.1859E4,1.355E3,1.6E1,4.9E1,1.8E1,1.3E1,9.7E1,7.6E1,5.456E3,5.691E3,2.746E3,2.227E3,4.501E3,9.3E2,1.0929E4,1.344E3,1.1E1,5E0,1.1E1,1.4E1,3.5E1,1.1E1,7E0,7.8E1,1.9E1,4.7E1,2.9E1,3.332E3,2.124E3,4.354E3,1.337E3,2.233E3,5.13E2,6.75E2,1.552E3,4.2E1,4.459E3,3.88E2,5.42E2,4.126E3,6.803E3,5E0,6E0,6E0,5E0,5E0,7.3E1,7E0,1.2E1,4.2E1,5E0,2.3E1,6E0,1.94E3,1.392E3,1.938E3,1.86E2,4.281E3,7.3E1,6.59E2,6.78E2,1.61E2,2.072E3,2.55E2,2.58E2,2.75E2,4E2,4.96E2,1.056E3,9E0,3.3E1,2.954E3,1.505E3,8.6E1,3.02E2,5E0,5.37E2,9.76E2,3.15E3,5.7E1,6.746E3],"tree_param":{"num_deleted":"0","num_feature":"133","num_nodes":"95","size_leaf_vector":"1"}},{"base_weights":[-2.0293838E-3,-2.0727125E-1,7.67861E-2,-2.1066508E-1,2.4145269E-3,-4.7956947E-3,1.5604724E-1,-2.1791789E-1,-1.5740733E-1,1.846918E-1,-8.0335036E-2,-9.454958E-2,6.270199E-2,3.432914E-2,1.7193145E-1,-2.1846712E-1,-1.5053634E-1,-1.8759023E-1,6.337107E-2,2.3917678E-1,-1.1045536E-2,5.5213954E-2,-1.8141007E-1,-1.6855392E-1,-4.7639992E-2,-2.1323154E-2,1.1759828E-1,-5.1932793E-2,9.971901E-2,1.8156995E-1,3.4843083E-2,-2.0071784E-1,-1.09616155E-2,-1.0805531E-2,1.8049358E-1,2.0874754E-2,-1.9260415E-1,1.2471217E-1,-1.8100335E-1,2.765174E-1,-2.9046573E-3,1.5147799E-1,-2.7163517E-1,9.34236E-3,-2.935623E-1,-7.2401166E-2,-1.9489172E-1,-1.335437E-1,-1.0298899E-3,-1.7082825E-1,9.508592E-3,-3.2190047E-2,1.4125988E-1,4.848983E-2,-1.3798898E-1,-4.339015E-2,1.4799097E-1,7.982612E-2,1.9072455E-1,-5.3085785E-2,1.7930391E-1,3.7705563E-3,-1.0291186E-2,1.3820886E-2,-4.3914685E-4,1.2614797E-2,-7.2740824E-3,-9.931749E-3,-3.9773434E-3,-2.0252317E-3,1.0918237E-2,-1.1939044E-2,7.084558E-4,1.4690424E-2,3.9158864E-3,-1.3230613E-2,1.0980035E-2,-5.9102494E-3,-2.1992063E-2,-6.247827E-3,1.0629951E-2,-3.9632586E-3,-2.164743E-2,-6.3437456E-3,4.1883173E-3,-1.1420872E-2,-6.0592364E-3,-5.016067E-4,-7.850349E-3,2.1977858E-3,-3.8391713E-3,-3.8886548E-3,-1.2333737E-2,-6.4627775E-3,1.9556133E-3,-4.4115344E-3,7.933079E-3,8.223465E-3,-2.1992004E-3,7.2606816E-3,-2.8893037E-3,5.1889955E-3,-8.472819E-3,1.6207732E-3,-1.0643661E-2,-1.704716E-3,8.68276E-3,-4.6588248E-3,5.881469E-3,1.0658296E-2,7.697797E-3,-8.412584E-3,1.3306497E-3,3.7101582E-3,1.0942453E-2],"categories":[],"categories_nodes":[],"categories_segments":[],"categories_sizes":[],"default_left":[0,0,0,0,0,0,0,0,0,0,0,0,0,0,0,0,0,0,0,0,0,0,0,0,0,0,0,0,0,0,0,0,0,0,0,0,0,0,0,0,0,0,0,0,0,0,0,0,0,0,0,0,0,0,0,0,0,0,0,0,0,0,0,0,0,0,0,0,0,0,0,0,0,0,0,0,0,0,0,0,0,0,0,0,0,0,0,0,0,0,0,0,0,0,0,0,0,0,0,0,0,0,0,0,0,0,0,0,0,0,0,0,0,0,0],"id":16,"left_children":[1,3,5,7,9,11,13,15,17,19,21,23,25,27,29,31,33,35,37,39,-1,41,43,45,47,49,51,53,55,57,59,61,-1,-1,63,65,67,69,71,73,-1,75,77,79,81,83,85,87,89,91,93,95,97,99,101,103,105,107,109,111,113,-1,-1,-1,-1,-1,-1,-1,-1,-1,-1,-1,-1,-1,-1,-1,-1,-1,-1,-1,-1,-1,-1,-1,-1,-1,-1,-1,-1,-1,-1,-1,-1,-1,-1,-1,-1,-1,-1,-1,-1,-1,-1,-1,-1,-1,-1,-1,-1,-1,-1,-1,-1,-1,-1],"loss_changes":[7.521269E2,9.202209E0,2.172436E2,4.8322144E0,3.1324458E0,1.0030227E2,3.2918518E1,3.4362793E-1,1.0199829E1,1.4911144E0,1.9681239E0,2.4642395E1,4.359724E1,1.1116411E1,1.9887085E1,6.4453125E-2,2.104738E0,1.4259796E0,2.7751396E0,6.8172E-1,0E0,1.9484236E0,1.7854156E0,6.9385986E0,1.7411732E1,1.7229643E1,2.0274277E1,7.3526897E0,7.760928E0,1.3073059E1,1.2622799E1,6.9825554E-1,0E0,0E0,3.1969023E-1,1.2793345E0,8.516197E-1,2.3166323E0,4.4307816E-1,1.1798549E-1,0E0,1.4141773E0,2.535143E-1,8.8154143E-1,1.4677048E0,5.076621E0,5.2798386E0,4.415638E0,9.626929E0,4.458372E0,1.2714188E1,8.349404E0,2.1245422E1,4.0466633E0,3.508544E0,3.6608648E0,3.9405918E0,7.6325784E0,1.0588776E1,5.681825E0,1.5171947E0,0E0,0E0,0E0,0E0,0E0,0E0,0E0,0E0,0E0,0E0,0E0,0E0,0E0,0E0,0E0,0E0,0E0,0E0,0E0,0E0,0E0,0E0,0E0,0E0,0E0,0E0,0E0,0E0,0E0,0E0,0E0,0E0,0E0,0E0,0E0,0E0,0E0,0E0,0E0,0E0,0E0,0E0,0E0,0E0,0E0,0E0,0E0,0E0,0E0,0E0,0E0,0E0,0E0,0E0],"parents":[2147483647,0,0,1,1,2,2,3,3,4,4,5,5,6,6,7,7,8,8,9,9,10,10,11,11,12,12,13,13,14,14,15,15,16,16,17,17,18,18,19,19,21,21,22,22,23,23,24,24,25,25,26,26,27,27,28,28,29,29,30,30,31,31,34,34,35,35,36,36,37,37,38,38,39,39,41,41,42,42,43,43,44,44,45,45,46,46,47,47,48,48,49,49,50,50,51,51,52,52,53,53,54,54,55,55,56,56,57,57,58,58,59,59,60,60],"right_children":[2,4,6,8,10,12,14,16,18,20,22,24,26,28,30,32,34,36,38,40,-1,42,44,46,48,50,52,54,56,58,60,62,-1,-1,64,66,68,70,72,74,-1,76,78,80,82,84,86,88,90,92,94,96,98,100,102,104,106,108,110,112,114,-1,-1,-1,-1,-1,-1,-1,-1,-1,-1,-1,-1,-1,-1,-1,-1,-1,-1,-1,-1,-1,-1,-1,-1,-1,-1,-1,-1,-1,-1,-1,-1,-1,-1,-1,-1,-1,-1,-1,-1,-1,-1,-1,-1,-1,-1,-1,-1,-1,-1,-1,-1,-1,-1],"split_conditions":[-6.30442E-1,1.5659839E-1,-2.392478E-1,-6.311982E-1,9.033101E-1,-2.4826019E-1,-4.9668666E-2,3.6696892E0,9.351561E-1,1.6896735E-1,-2.2768614E-1,-1.0014598E0,-4.368703E-1,3.4474665E-1,2.5540382E-1,-2.2782252E0,-6.322802E-1,-2.1077964E0,8.201979E-1,2.3937867E0,-1.1045536E-2,8.685942E-1,1.5309842E-3,-1.0867739E0,-6.8251604E-1,-1.3343648E0,-2.8365195E-1,-2.8937083E-1,-4.81697E-1,-7.385432E-1,1.5806116E0,-2.0061064E0,-1.09616155E-2,-1.0805531E-2,2.4112289E-1,-2.1553962E0,2.470164E0,-3.3863753E-1,4.5245743E-1,7.3227257E-1,-2.9046573E-3,-1.1327583E0,-6.311982E-1,5.9857094E-1,-3.8806093E-1,1.9103205E-1,-2.4269456E-3,-9.3567485E-1,5.029168E-1,2.1067785E-1,-3.3207673E-1,1.5367666E-1,1.6173646E-1,-3.791028E-1,-1.0812507E0,3.304171E-1,-9.7312707E-1,-5.78793E-1,1.5349191E-1,8.144951E-2,-2.629254E-1,3.7705563E-3,-1.0291186E-2,1.3820886E-2,-4.3914685E-4,1.2614797E-2,-7.2740824E-3,-9.931749E-3,-3.9773434E-3,-2.0252317E-3,1.0918237E-2,-1.1939044E-2,7.084558E-4,1.4690424E-2,3.9158864E-3,-1.3230613E-2,1.0980035E-2,-5.9102494E-3,-2.1992063E-2,-6.247827E-3,1.0629951E-2,-3.9632586E-3,-2.164743E-2,-6.3437456E-3,4.1883173E-3,-1.1420872E-2,-6.0592364E-3,-5.016067E-4,-7.850349E-3,2.1977858E-3,-3.8391713E-3,-3.8886548E-3,-1.2333737E-2,-6.4627775E-3,1.9556133E-3,-4.4115344E-3,7.933079E-3,8.223465E-3,-2.1992004E-3,7.2606816E-3,-2.8893037E-3,5.1889955E-3,-8.472819E-3,1.6207732E-3,-1.0643661E-2,-1.704716E-3,8.68276E-3,-4.6588248E-3,5.881469E-3,1.0658296E-2,7.697797E-3,-8.412584E-3,1.3306497E-3,3.7101582E-3,1.0942453E-2],"split_indices":[128,126,126,128,124,26,99,129,129,105,12,13,129,98,99,61,128,2,124,1,0,33,23,103,26,13,32,7,99,13,98,111,0,0,16,61,51,126,50,63,0,89,128,126,105,48,55,103,112,79,37,13,32,105,5,7,88,98,103,130,131,0,0,0,0,0,0,0,0,0,0,0,0,0,0,0,0,0,0,0,0,0,0,0,0,0,0,0,0,0,0,0,0,0,0,0,0,0,0,0,0,0,0,0,0,0,0,0,0,0,0,0,0,0,0],"split_type":[0,0,0,0,0,0,0,0,0,0,0,0,0,0,0,0,0,0,0,0,0,0,0,0,0,0,0,0,0,0,0,0,0,0,0,0,0,0,0,0,0,0,0,0,0,0,0,0,0,0,0,0,0,0,0,0,0,0,0,0,0,0,0,0,0,0,0,0,0,0,0,0,0,0,0,0,0,0,0,0,0,0,0,0,0,0,0,0,0,0,0,0,0,0,0,0,0,0,0,0,0,0,0,0,0,0,0,0,0,0,0,0,0,0,0],"sum_hessian":[4.6493E4,1.29E4,3.3593E4,1.2695E4,2.05E2,1.6554E4,1.7039E4,1.1169E4,1.526E3,6.4E1,1.41E2,7.106E3,9.448E3,1.968E3,1.5071E4,1.1075E4,9.4E1,1.343E3,1.83E2,5.7E1,7E0,6E1,8.1E1,2.755E3,4.351E3,3.733E3,5.715E3,8.48E2,1.12E3,1.408E4,9.91E2,4.74E2,1.0601E4,7.9E1,1.5E1,3.1E1,1.312E3,1.47E2,3.6E1,5.1E1,6E0,4.7E1,1.3E1,3E1,5.1E1,5.94E2,2.161E3,1.529E3,2.822E3,6.38E2,3.095E3,7.79E2,4.936E3,3.91E2,4.57E2,2.82E2,8.38E2,1.164E3,1.2916E4,6.16E2,3.75E2,8E0,4.66E2,1E1,5E0,1.3E1,1.8E1,1.244E3,6.8E1,5.3E1,9.4E1,2.8E1,8E0,4.6E1,5E0,6E0,4.1E1,8E0,5E0,1.8E1,1.2E1,2.1E1,3E1,4.41E2,1.53E2,1.483E3,6.78E2,2.45E2,1.284E3,1.77E3,1.052E3,2.88E2,3.5E2,5.43E2,2.552E3,6.03E2,1.76E2,4.387E3,5.49E2,2.05E2,1.86E2,5.2E1,4.05E2,1.95E2,8.7E1,1.03E2,7.35E2,2.08E2,9.56E2,8.016E3,4.9E3,2.52E2,3.64E2,1.04E2,2.71E2],"tree_param":{"num_deleted":"0","num_feature":"133","num_nodes":"115","size_leaf_vector":"1"}},{"base_weights":[1.1388068E-3,-1.5092838E-1,1.2912552E-1,-2.1240515E-1,-3.752676E-2,4.391657E-2,1.843094E-1,-1.0484277E-2,-1.1746484E-2,1.23771146E-1,-1.7327335E-1,1.9055696E-1,-3.1120501E-2,1.3847941E-1,2.0095354E-1,3.396801E-2,1.6535129E-1,-1.8956503E-1,-2.3717737E-2,-1.7345798E-1,1.9492857E-1,-1.1798521E-1,2.4236618E-2,9.660116E-2,1.974736E-1,1.6138561E-1,2.097707E-1,-3.2115236E-2,1.4297284E-1,-4.2485476E-2,1.8285856E-1,-2.156255E-1,-1.4044248E-1,2.1230066E-1,-1.0159848E-1,1.1999765E-2,-3.851205E-1,1.1250596E-1,2.0676818E-1,-1.4353998E-1,2.5135154E-1,8.410328E-2,-3.6557913E-2,2.6993377E-2,1.7780025E-1,2.2810589E-1,1.6374736E-1,-1.4971368E-1,1.7318036E-1,-1.819177E-2,2.1026048E-1,-4.002327E-3,1.0763674E-2,1.2103569E-2,-5.7589024E-4,1.1999386E-2,-9.808934E-3,6.6031585E-3,1.1133327E-2,-1.2184908E-2,-9.1800485E-3,-8.099923E-3,3.8109384E-3,1.3954717E-2,-4.9110292E-3,-1.455048E-2,-5.45814E-5,-2.4365244E-2,-1.0422397E-2,-2.275979E-3,8.8207135E-3,-4.228335E-3,1.0422657E-2,-9.911882E-3,-2.8623987E-3,1.4206583E-2,-2.0748742E-2,8.6940435E-4,9.201522E-3,1.2170269E-2,-3.0994017E-3,4.5390744E-3,-3.6304765E-3,1.0911408E-2,6.274875E-3,-6.588658E-3,1.1604302E-2,-2.8086722E-2,8.454106E-3,6.4317742E-3,-1.3109728E-2,3.7955274E-3,9.38554E-3,1.05344495E-2,-1.1851543E-2],"categories":[],"categories_nodes":[],"categories_segments":[],"categories_sizes":[],"default_left":[0,0,0,0,0,0,0,0,0,0,0,0,0,0,0,0,0,0,0,0,0,0,0,0,0,0,0,0,0,0,0,0,0,0,0,0,0,0,0,0,0,0,0,0,0,0,0,0,0,0,0,0,0,0,0,0,0,0,0,0,0,0,0,0,0,0,0,0,0,0,0,0,0,0,0,0,0,0,0,0,0,0,0,0,0,0,0,0,0,0,0,0,0,0,0],"id":17,"left_children":[1,3,5,7,9,11,13,-1,-1,15,17,19,21,23,25,27,29,31,33,35,37,39,41,43,45,47,49,51,53,55,57,59,61,63,65,-1,67,69,71,73,75,77,79,81,83,85,87,89,91,-1,93,-1,-1,-1,-1,-1,-1,-1,-1,-1,-1,-1,-1,-1,-1,-1,-1,-1,-1,-1,-1,-1,-1,-1,-1,-1,-1,-1,-1,-1,-1,-1,-1,-1,-1,-1,-1,-1,-1,-1,-1,-1,-1,-1,-1],"loss_changes":[9.0183527E2,1.4759692E2,1.1828012E2,7.474365E-1,1.6306136E2,1.0886815E2,1.1586243E1,0E0,0E0,1.2681339E1,9.827431E0,5.3653336E0,3.1479582E1,1.001416E1,3.8357239E0,7.7881393E0,8.481678E0,4.6015625E0,7.344633E0,3.6074424E0,3.1748886E0,2.4074135E1,1.4555172E1,1.3454954E1,1.6683884E0,7.5394173E0,2.6323547E0,7.972059E0,6.2722397E0,7.900672E0,4.2724457E0,2.0512848E0,5.9429245E0,2.098845E0,5.7006435E0,0E0,3.1628227E-1,4.252661E0,1.449646E0,1.1215504E1,3.7087965E0,1.3409974E1,1.4114916E1,8.178986E0,2.2641792E0,1.302536E0,3.186758E0,2.3952553E0,2.7479744E0,0E0,1.8001404E0,0E0,0E0,0E0,0E0,0E0,0E0,0E0,0E0,0E0,0E0,0E0,0E0,0E0,0E0,0E0,0E0,0E0,0E0,0E0,0E0,0E0,0E0,0E0,0E0,0E0,0E0,0E0,0E0,0E0,0E0,0E0,0E0,0E0,0E0,0E0,0E0,0E0,0E0,0E0,0E0,0E0,0E0,0E0,0E0],"parents":[2147483647,0,0,1,1,2,2,3,3,4,4,5,5,6,6,9,9,10,10,11,11,12,12,13,13,14,14,15,15,16,16,17,17,18,18,19,19,20,20,21,21,22,22,23,23,24,24,25,25,26,26,27,27,28,28,29,29,30,30,31,31,32,32,33,33,34,34,36,36,37,37,38,38,39,39,40,40,41,41,42,42,43,43,44,44,45,45,46,46,47,47,48,48,50,50],"right_children":[2,4,6,8,10,12,14,-1,-1,16,18,20,22,24,26,28,30,32,34,36,38,40,42,44,46,48,50,52,54,56,58,60,62,64,66,-1,68,70,72,74,76,78,80,82,84,86,88,90,92,-1,94,-1,-1,-1,-1,-1,-1,-1,-1,-1,-1,-1,-1,-1,-1,-1,-1,-1,-1,-1,-1,-1,-1,-1,-1,-1,-1,-1,-1,-1,-1,-1,-1,-1,-1,-1,-1,-1,-1,-1,-1,-1,-1,-1,-1],"split_conditions":[7.2658084E-2,-5.2810675E-1,6.896606E-1,-6.303666E-1,-6.2007797E-1,-6.1230797E-1,-7.701734E-1,-1.0484277E-2,-1.1746484E-2,-1.0649776E-1,1.1269732E-1,-1.8653948E0,-9.4190437E-1,3.7061918E-1,-4.368703E-1,6.5143675E-1,-1.3539561E0,3.1698677E-1,-4.519535E-1,2.1731369E-1,-4.912698E-1,1.0843766E0,2.7895808E-1,1.1712515E0,-5.969908E-1,-1.196054E0,-2.0916047E0,1.0871391E0,-4.2648283E-1,-7.2276616E-1,4.5245743E-1,-9.867573E-1,3.6861518E-1,7.2157025E-1,-2.7979305E-1,1.1999765E-2,1.0138301E0,7.030802E-2,-3.5272486E0,-7.762341E-2,2.642229E-1,2.2503956E-1,-1.2253805E0,-1.0235436E-1,2.567328E-1,-2.0773451E0,-1.4993173E0,-1.7373079E-1,-1.0569798E0,-1.819177E-2,2.061447E0,-4.002327E-3,1.0763674E-2,1.2103569E-2,-5.7589024E-4,1.1999386E-2,-9.808934E-3,6.6031585E-3,1.1133327E-2,-1.2184908E-2,-9.1800485E-3,-8.099923E-3,3.8109384E-3,1.3954717E-2,-4.9110292E-3,-1.455048E-2,-5.45814E-5,-2.4365244E-2,-1.0422397E-2,-2.275979E-3,8.8207135E-3,-4.228335E-3,1.0422657E-2,-9.911882E-3,-2.8623987E-3,1.4206583E-2,-2.0748742E-2,8.6940435E-4,9.201522E-3,1.2170269E-2,-3.0994017E-3,4.5390744E-3,-3.6304765E-3,1.0911408E-2,6.274875E-3,-6.588658E-3,1.1604302E-2,-2.8086722E-2,8.454106E-3,6.4317742E-3,-1.3109728E-2,3.7955274E-3,9.38554E-3,1.05344495E-2,-1.1851543E-2],"split_indices":[108,108,108,128,128,128,91,0,0,51,13,86,13,110,129,102,59,1,103,17,13,18,12,108,65,17,16,111,105,69,50,13,20,49,55,0,96,127,120,48,2,3,96,114,69,48,116,69,13,0,48,0,0,0,0,0,0,0,0,0,0,0,0,0,0,0,0,0,0,0,0,0,0,0,0,0,0,0,0,0,0,0,0,0,0,0,0,0,0,0,0,0,0,0,0],"split_type":[0,0,0,0,0,0,0,0,0,0,0,0,0,0,0,0,0,0,0,0,0,0,0,0,0,0,0,0,0,0,0,0,0,0,0,0,0,0,0,0,0,0,0,0,0,0,0,0,0,0,0,0,0,0,0,0,0,0,0,0,0,0,0,0,0,0,0,0,0,0,0,0,0,0,0,0,0,0,0,0,0,0,0,0,0,0,0,0,0,0,0,0,0,0,0],"sum_hessian":[4.6335E4,2.1175E4,2.516E4,1.373E4,7.445E3,9.891E3,1.5269E4,1.2264E4,1.466E3,3.402E3,4.043E3,3.348E3,6.543E3,4.072E3,1.1197E4,1.078E3,2.324E3,3.645E3,3.98E2,3.9E1,3.309E3,2.547E3,3.996E3,2.384E3,1.688E3,2.046E3,9.151E3,6.71E2,4.07E2,1.8E2,2.144E3,2.378E3,1.267E3,9.8E1,3E2,1.3E1,2.6E1,4.18E2,2.891E3,2.383E3,1.64E2,2.014E3,1.982E3,1.285E3,1.099E3,8.8E2,8.08E2,7.4E1,1.972E3,7E0,9.144E3,5.63E2,1.08E2,2.48E2,1.59E2,6.3E1,1.17E2,9.45E2,1.199E3,1.262E3,1.116E3,1.153E3,1.14E2,8.1E1,1.7E1,1.03E2,1.97E2,1.5E1,1.1E1,1.2E2,2.98E2,1.6E1,2.875E3,1.457E3,9.26E2,1.57E2,7E0,1.209E3,8.05E2,1.64E2,1.818E3,7.84E2,5.01E2,6.17E2,4.82E2,9E0,8.71E2,5E0,8.03E2,2.1E1,5.3E1,2.58E2,1.714E3,9.136E3,8E0],"tree_param":{"num_deleted":"0","num_feature":"133","num_nodes":"95","size_leaf_vector":"1"}},{"base_weights":[7.548228E-4,-1.8390825E-1,7.225462E-2,-1.9617124E-1,-1.12128235E-1,-8.3030394E-4,1.4170218E-1,-1.9688512E-1,-6.628069E-2,-1.8078543E-1,1.1959798E-1,-8.171894E-2,6.1140753E-2,9.686236E-2,1.7343678E-1,-1.979703E-1,-1.7035899E-1,1.6855028E-1,-1.5193698E-1,-1.8789817E-1,-5.5436514E-2,-2.6406908E-2,1.5235302E-1,-1.3349816E-1,-1.9083142E-2,-7.514877E-2,8.867225E-2,-1.723105E-1,1.0886366E-1,1.7656527E-1,-1.9130455E-1,-9.91397E-3,-1.7535639E-1,-1.9433747E-1,1.3186744E-1,1.30318925E-2,-1.3524952E-3,-2.665938E-1,-4.9817744E-3,-1.8941557E-1,8.825633E-3,2.1286455E-1,-1.211544E-1,-2.197949E-1,7.4371785E-2,-1.0255831E-2,1.6250385E-1,-9.387644E-2,-1.8016662E-1,-1.0752194E-1,2.9726071E-2,-1.3846005E-1,1.0374705E-2,-4.53256E-2,1.1724787E-1,-1.9022271E-1,1.800069E-1,4.8851566E-3,1.297249E-1,1.8426183E-1,1.0636574E-1,1.2648393E-1,-2.671774E-1,-9.498213E-3,-0E0,-9.993597E-3,-4.3727006E-3,-1.8514007E-2,1.3043679E-2,-8.72619E-3,-1.9322673E-2,-8.984699E-3,8.848767E-3,-9.145161E-3,-1.11929765E-2,2.4886862E-3,1.3669048E-2,-8.514206E-3,5.289314E-3,-1.6155323E-2,-0E0,1.17608495E-2,-3.1702071E-3,-3.7289758E-3,8.83848E-3,-8.36188E-3,-2.4230524E-3,-1.043078E-2,-5.0475374E-3,-1.1336872E-3,-7.2514997E-3,-6.238801E-4,4.7111195E-3,-8.313976E-3,-2.5884032E-3,8.848029E-3,-2.5226907E-3,5.1891026E-3,-4.027371E-3,-2.0450952E-3,6.85435E-3,9.596599E-4,-1.0782498E-2,1.5605802E-2,-2.675473E-3,-3.703036E-3,6.205836E-3,5.1274216E-3,9.196417E-3,-6.92996E-3,9.2882E-3,-1.0291643E-2,6.393333E-3,1.2521845E-2,-6.2918E-3,-1.461181E-4,-1.8916456E-2],"categories":[],"categories_nodes":[],"categories_segments":[],"categories_sizes":[],"default_left":[0,0,0,0,0,0,0,0,0,0,0,0,0,0,0,0,0,0,0,0,0,0,0,0,0,0,0,0,0,0,0,0,0,0,0,0,0,0,0,0,0,0,0,0,0,0,0,0,0,0,0,0,0,0,0,0,0,0,